FANN_FLO_2.1
num_layers=3
learning_rate=0.700000
connection_rate=1.000000
network_type=0
learning_momentum=0.000000
training_algorithm=2
train_error_function=1
train_stop_function=0
cascade_output_change_fraction=0.010000
quickprop_decay=-0.000100
quickprop_mu=1.750000
rprop_increase_factor=1.200000
rprop_decrease_factor=0.500000
rprop_delta_min=0.000000
rprop_delta_max=50.000000
rprop_delta_zero=0.100000
cascade_output_stagnation_epochs=12
cascade_candidate_change_fraction=0.010000
cascade_candidate_stagnation_epochs=12
cascade_max_out_epochs=150
cascade_max_cand_epochs=150
cascade_num_candidate_groups=2
bit_fail_limit=3.49999999999999980000e-001
cascade_candidate_limit=1.00000000000000000000e+003
cascade_weight_multiplier=4.00000000000000020000e-001
cascade_activation_functions_count=10
cascade_activation_functions=3 5 7 8 10 11 14 15 16 17 
cascade_activation_steepnesses_count=4
cascade_activation_steepnesses=2.50000000000000000000e-001 5.00000000000000000000e-001 7.50000000000000000000e-001 1.00000000000000000000e+000 
layer_sizes=113 61 17 
scale_included=0
neurons (num_inputs, activation_function, activation_steepness)=(0, 0, 0.00000000000000000000e+000) (0, 0, 0.00000000000000000000e+000) (0, 0, 0.00000000000000000000e+000) (0, 0, 0.00000000000000000000e+000) (0, 0, 0.00000000000000000000e+000) (0, 0, 0.00000000000000000000e+000) (0, 0, 0.00000000000000000000e+000) (0, 0, 0.00000000000000000000e+000) (0, 0, 0.00000000000000000000e+000) (0, 0, 0.00000000000000000000e+000) (0, 0, 0.00000000000000000000e+000) (0, 0, 0.00000000000000000000e+000) (0, 0, 0.00000000000000000000e+000) (0, 0, 0.00000000000000000000e+000) (0, 0, 0.00000000000000000000e+000) (0, 0, 0.00000000000000000000e+000) (0, 0, 0.00000000000000000000e+000) (0, 0, 0.00000000000000000000e+000) (0, 0, 0.00000000000000000000e+000) (0, 0, 0.00000000000000000000e+000) (0, 0, 0.00000000000000000000e+000) (0, 0, 0.00000000000000000000e+000) (0, 0, 0.00000000000000000000e+000) (0, 0, 0.00000000000000000000e+000) (0, 0, 0.00000000000000000000e+000) (0, 0, 0.00000000000000000000e+000) (0, 0, 0.00000000000000000000e+000) (0, 0, 0.00000000000000000000e+000) (0, 0, 0.00000000000000000000e+000) (0, 0, 0.00000000000000000000e+000) (0, 0, 0.00000000000000000000e+000) (0, 0, 0.00000000000000000000e+000) (0, 0, 0.00000000000000000000e+000) (0, 0, 0.00000000000000000000e+000) (0, 0, 0.00000000000000000000e+000) (0, 0, 0.00000000000000000000e+000) (0, 0, 0.00000000000000000000e+000) (0, 0, 0.00000000000000000000e+000) (0, 0, 0.00000000000000000000e+000) (0, 0, 0.00000000000000000000e+000) (0, 0, 0.00000000000000000000e+000) (0, 0, 0.00000000000000000000e+000) (0, 0, 0.00000000000000000000e+000) (0, 0, 0.00000000000000000000e+000) (0, 0, 0.00000000000000000000e+000) (0, 0, 0.00000000000000000000e+000) (0, 0, 0.00000000000000000000e+000) (0, 0, 0.00000000000000000000e+000) (0, 0, 0.00000000000000000000e+000) (0, 0, 0.00000000000000000000e+000) (0, 0, 0.00000000000000000000e+000) (0, 0, 0.00000000000000000000e+000) (0, 0, 0.00000000000000000000e+000) (0, 0, 0.00000000000000000000e+000) (0, 0, 0.00000000000000000000e+000) (0, 0, 0.00000000000000000000e+000) (0, 0, 0.00000000000000000000e+000) (0, 0, 0.00000000000000000000e+000) (0, 0, 0.00000000000000000000e+000) (0, 0, 0.00000000000000000000e+000) (0, 0, 0.00000000000000000000e+000) (0, 0, 0.00000000000000000000e+000) (0, 0, 0.00000000000000000000e+000) (0, 0, 0.00000000000000000000e+000) (0, 0, 0.00000000000000000000e+000) (0, 0, 0.00000000000000000000e+000) (0, 0, 0.00000000000000000000e+000) (0, 0, 0.00000000000000000000e+000) (0, 0, 0.00000000000000000000e+000) (0, 0, 0.00000000000000000000e+000) (0, 0, 0.00000000000000000000e+000) (0, 0, 0.00000000000000000000e+000) (0, 0, 0.00000000000000000000e+000) (0, 0, 0.00000000000000000000e+000) (0, 0, 0.00000000000000000000e+000) (0, 0, 0.00000000000000000000e+000) (0, 0, 0.00000000000000000000e+000) (0, 0, 0.00000000000000000000e+000) (0, 0, 0.00000000000000000000e+000) (0, 0, 0.00000000000000000000e+000) (0, 0, 0.00000000000000000000e+000) (0, 0, 0.00000000000000000000e+000) (0, 0, 0.00000000000000000000e+000) (0, 0, 0.00000000000000000000e+000) (0, 0, 0.00000000000000000000e+000) (0, 0, 0.00000000000000000000e+000) (0, 0, 0.00000000000000000000e+000) (0, 0, 0.00000000000000000000e+000) (0, 0, 0.00000000000000000000e+000) (0, 0, 0.00000000000000000000e+000) (0, 0, 0.00000000000000000000e+000) (0, 0, 0.00000000000000000000e+000) (0, 0, 0.00000000000000000000e+000) (0, 0, 0.00000000000000000000e+000) (0, 0, 0.00000000000000000000e+000) (0, 0, 0.00000000000000000000e+000) (0, 0, 0.00000000000000000000e+000) (0, 0, 0.00000000000000000000e+000) (0, 0, 0.00000000000000000000e+000) (0, 0, 0.00000000000000000000e+000) (0, 0, 0.00000000000000000000e+000) (0, 0, 0.00000000000000000000e+000) (0, 0, 0.00000000000000000000e+000) (0, 0, 0.00000000000000000000e+000) (0, 0, 0.00000000000000000000e+000) (0, 0, 0.00000000000000000000e+000) (0, 0, 0.00000000000000000000e+000) (0, 0, 0.00000000000000000000e+000) (0, 0, 0.00000000000000000000e+000) (0, 0, 0.00000000000000000000e+000) (0, 0, 0.00000000000000000000e+000) (0, 0, 0.00000000000000000000e+000) (0, 0, 0.00000000000000000000e+000) (113, 4, 5.00000000000000000000e-001) (113, 4, 5.00000000000000000000e-001) (113, 4, 5.00000000000000000000e-001) (113, 4, 5.00000000000000000000e-001) (113, 4, 5.00000000000000000000e-001) (113, 4, 5.00000000000000000000e-001) (113, 4, 5.00000000000000000000e-001) (113, 4, 5.00000000000000000000e-001) (113, 4, 5.00000000000000000000e-001) (113, 4, 5.00000000000000000000e-001) (113, 4, 5.00000000000000000000e-001) (113, 4, 5.00000000000000000000e-001) (113, 4, 5.00000000000000000000e-001) (113, 4, 5.00000000000000000000e-001) (113, 4, 5.00000000000000000000e-001) (113, 4, 5.00000000000000000000e-001) (113, 4, 5.00000000000000000000e-001) (113, 4, 5.00000000000000000000e-001) (113, 4, 5.00000000000000000000e-001) (113, 4, 5.00000000000000000000e-001) (113, 4, 5.00000000000000000000e-001) (113, 4, 5.00000000000000000000e-001) (113, 4, 5.00000000000000000000e-001) (113, 4, 5.00000000000000000000e-001) (113, 4, 5.00000000000000000000e-001) (113, 4, 5.00000000000000000000e-001) (113, 4, 5.00000000000000000000e-001) (113, 4, 5.00000000000000000000e-001) (113, 4, 5.00000000000000000000e-001) (113, 4, 5.00000000000000000000e-001) (113, 4, 5.00000000000000000000e-001) (113, 4, 5.00000000000000000000e-001) (113, 4, 5.00000000000000000000e-001) (113, 4, 5.00000000000000000000e-001) (113, 4, 5.00000000000000000000e-001) (113, 4, 5.00000000000000000000e-001) (113, 4, 5.00000000000000000000e-001) (113, 4, 5.00000000000000000000e-001) (113, 4, 5.00000000000000000000e-001) (113, 4, 5.00000000000000000000e-001) (113, 4, 5.00000000000000000000e-001) (113, 4, 5.00000000000000000000e-001) (113, 4, 5.00000000000000000000e-001) (113, 4, 5.00000000000000000000e-001) (113, 4, 5.00000000000000000000e-001) (113, 4, 5.00000000000000000000e-001) (113, 4, 5.00000000000000000000e-001) (113, 4, 5.00000000000000000000e-001) (113, 4, 5.00000000000000000000e-001) (113, 4, 5.00000000000000000000e-001) (113, 4, 5.00000000000000000000e-001) (113, 4, 5.00000000000000000000e-001) (113, 4, 5.00000000000000000000e-001) (113, 4, 5.00000000000000000000e-001) (113, 4, 5.00000000000000000000e-001) (113, 4, 5.00000000000000000000e-001) (113, 4, 5.00000000000000000000e-001) (113, 4, 5.00000000000000000000e-001) (113, 4, 5.00000000000000000000e-001) (113, 4, 5.00000000000000000000e-001) (0, 0, 0.00000000000000000000e+000) (61, 4, 5.00000000000000000000e-001) (61, 4, 5.00000000000000000000e-001) (61, 4, 5.00000000000000000000e-001) (61, 4, 5.00000000000000000000e-001) (61, 4, 5.00000000000000000000e-001) (61, 4, 5.00000000000000000000e-001) (61, 4, 5.00000000000000000000e-001) (61, 4, 5.00000000000000000000e-001) (61, 4, 5.00000000000000000000e-001) (61, 4, 5.00000000000000000000e-001) (61, 4, 5.00000000000000000000e-001) (61, 4, 5.00000000000000000000e-001) (61, 4, 5.00000000000000000000e-001) (61, 4, 5.00000000000000000000e-001) (61, 4, 5.00000000000000000000e-001) (61, 4, 5.00000000000000000000e-001) (0, 0, 0.00000000000000000000e+000) 
connections (connected_to_neuron, weight)=(0, -1.56307070305583200000e+000) (1, 9.84941755101244180000e+000) (2, 3.67120405902901850000e+000) (3, 1.30526518707689850000e+000) (4, 1.32015776542381520000e+000) (5, 3.83318526261460150000e+000) (6, 9.73389098845441780000e-001) (7, 1.07242984836784460000e-001) (8, 3.88125446188503250000e-001) (9, 2.33504509280683340000e-001) (10, 4.47228710617219690000e+000) (11, 3.08372515931212180000e-001) (12, 4.49882839536027260000e-001) (13, 2.08504781310748030000e+000) (14, -1.23266495654964460000e-001) (15, 5.56034193062103780000e-001) (16, 3.51130192187514570000e-001) (17, 1.48855006826273770000e+000) (18, 2.46803042608464020000e+000) (19, 7.14559972277708290000e-001) (20, 3.03930592902998510000e+000) (21, 1.33552717234063570000e+000) (22, 1.14496107322911620000e+000) (23, 5.58166457097847510000e-001) (24, 6.49400400167719830000e-001) (25, 1.26479257416757230000e+000) (26, 3.84844575438359190000e+000) (27, 9.48592751538219200000e-001) (28, 1.48773876430935290000e+000) (29, 3.00080629351307420000e+000) (30, 3.09953853929081700000e-001) (31, 9.57186206341037880000e-002) (32, 8.01488816702599860000e-001) (33, 1.35109150422626940000e+000) (34, 7.35546345162849780000e-001) (35, 8.63473513685447000000e-001) (36, 4.44340344551013290000e-001) (37, 6.96547085876030870000e-001) (38, 3.25538048687890880000e-001) (39, -8.68990220998993100000e-003) (40, 3.48101890061775880000e+000) (41, 6.52330600267401370000e+000) (42, 3.21502346377902540000e-001) (43, 3.42856412972121830000e-001) (44, 5.46829555040596600000e-001) (45, 4.15221065412358810000e-001) (46, 4.24118240472034110000e-001) (47, 4.39773858398881390000e-001) (48, 3.81190910910180230000e+000) (49, 1.67276746787563040000e+000) (50, 5.96485277818242570000e-001) (51, 5.72077301297465150000e-001) (52, 5.09228786267833630000e-001) (53, 5.62061733240742930000e-001) (54, 1.18433187190600430000e+000) (55, 9.28294712117465170000e-001) (56, 5.56490115459027820000e-001) (57, 5.11183048384842830000e+000) (58, 2.24270413801531230000e+000) (59, 1.19911856662885930000e+000) (60, 8.97331669557230870000e-001) (61, 3.18442182288717830000e+000) (62, 1.17181441735605850000e+000) (63, 5.28711442189453980000e-001) (64, 4.23999181547345170000e-001) (65, 4.92154836070301990000e+000) (66, 1.37388418044098920000e+001) (67, 4.43858675604405890000e-001) (68, 6.28560785180291460000e-001) (69, 1.19515530408595060000e+000) (70, 4.09954742430489640000e+000) (71, 1.81895720722103760000e+000) (72, 3.43385637751179810000e-001) (73, 4.72445596835798730000e-001) (74, 1.67251418382785210000e+000) (75, 9.17073551126119100000e-001) (76, 2.09274978712951270000e+000) (77, 9.25342999095876470000e-001) (78, 7.93130041211872430000e+000) (79, 1.18111419819829710000e+001) (80, 6.45572083863817040000e-001) (81, 5.41368659515996330000e-001) (82, 5.81163278376494400000e-001) (83, 1.00020215393183350000e+000) (84, 7.93996101949677250000e+000) (85, 8.86410154862014470000e+000) (86, 7.48086114411367120000e+000) (87, 5.16788943945870200000e+000) (88, 5.12031437069359810000e+000) (89, 2.14473032844530520000e+000) (90, 2.49357480435150460000e-001) (91, -1.41448833243858640000e+000) (92, -1.64932305624917630000e+000) (93, 3.79213222786683180000e-001) (94, 1.80870653523537910000e+000) (95, 2.36128508624032030000e+000) (96, 2.70064683270236470000e-001) (97, 2.24036802944406380000e+000) (98, 1.61516803623219500000e+000) (99, -5.01458874381582180000e-002) (100, 1.88691267220913980000e-001) (101, 1.20045760478317360000e+000) (102, 1.94982556972587750000e+000) (103, 1.07214133253972290000e+000) (104, 2.08791874814842520000e-001) (105, 3.20942790338153150000e-001) (106, 4.18258575562038890000e+000) (107, 2.14027357061064860000e+000) (108, 1.62008981700577510000e+000) (109, 1.47399684316103690000e+000) (110, 1.43496907478581300000e+000) (111, 1.47121177144596800000e-001) (112, 9.63164290598791270000e-001) (0, 7.88277809899254890000e-001) (1, 1.21559039428289810000e+002) (2, 5.13660309376516740000e-001) (3, 6.32767747029993060000e-001) (4, 6.52183030522428320000e-001) (5, 4.75684234591879140000e-001) (6, 2.15502577003829850000e-001) (7, -5.25137347531598020000e-001) (8, -8.89015139426003030000e+000) (9, 7.04266748721682160000e-001) (10, 9.94988379441576700000e-001) (11, -6.65743329510037670000e-001) (12, 2.31911280306054300000e+001) (13, 3.96745002921173210000e+000) (14, -2.76439808555766840000e+000) (15, -8.10445740642136150000e-002) (16, 3.03160119872660170000e-001) (17, -1.71261401865114340000e+000) (18, 1.32786229069776280000e+000) (19, 2.17824572893502650000e-001) (20, 1.41454017452487530000e-001) (21, 1.87770134763721760000e-001) (22, -1.84640423112392990000e+000) (23, 8.79693649600881700000e-001) (24, 6.15291975396554780000e-001) (25, -1.24099889937615710000e+000) (26, -6.03494557156438520000e-001) (27, -5.60328367789451470000e-002) (28, 1.62052680155628490000e-001) (29, -2.13452762720402860000e-002) (30, 3.26320366061107480000e-001) (31, 4.10056302395722990000e-001) (32, 3.60163164939128310000e-001) (33, 1.96579564522795240000e-001) (34, -1.68325898304563710000e-001) (35, 2.94987605073538880000e-001) (36, 1.09021266594731810000e-001) (37, -2.41139307767270880000e-001) (38, 3.31282451874226170000e-001) (39, 6.00549944689199530000e-001) (40, 2.34843821265894680000e-001) (41, 2.45235771577753090000e-001) (42, 1.71300675001012290000e+000) (43, 9.30828613130662790000e-001) (44, 3.08560264676274230000e-001) (45, 1.15241454939490410000e-001) (46, -4.81215138564644820000e-001) (47, 2.37609290364857510000e-001) (48, 3.75020814592505640000e-001) (49, 9.09006260438171450000e-001) (50, 3.89094137172524830000e-001) (51, 3.02412294599816800000e+000) (52, 8.11252263826627740000e+000) (53, 1.51051377301624320000e-001) (54, 2.44504090684962730000e-001) (55, -2.91581806559950140000e-001) (56, 1.06644735684622690000e+000) (57, 5.24580817220863800000e-001) (58, 1.04544209582567600000e+000) (59, 6.98290615486988390000e+000) (60, -4.49478891712861640000e-002) (61, 3.43075901236367110000e-001) (62, 5.65082039951133940000e-002) (63, -8.92128116227853370000e-001) (64, 4.10618872382017050000e-001) (65, 5.37766251677709750000e-001) (66, 2.10913543582669180000e+000) (67, 3.21555594901215880000e-001) (68, 3.12494098155950250000e-001) (69, 2.99974942024414660000e-001) (70, 4.28884267920568940000e-001) (71, -2.27391171816737380000e-001) (72, 7.13530251142710740000e-001) (73, 4.55695987911601870000e-001) (74, 4.19577364025660480000e-001) (75, 3.41785741822524580000e-001) (76, 2.58134151959588440000e-001) (77, -5.21614374941281600000e-001) (78, 4.90675936846028450000e-001) (79, 9.47265160505141760000e-001) (80, 6.43951927717729580000e-001) (81, 1.36195649448413640000e-001) (82, -4.34153909891231090000e-001) (83, -2.11814558822518300000e+000) (84, -3.15778909404714760000e+000) (85, -7.01672706004454080000e-001) (86, 4.59906109287462840000e-001) (87, 1.44663674682004740000e+000) (88, -5.01416068246791190000e-001) (89, -5.41540633275084060000e-001) (90, -5.72820933602901540000e-001) (91, -6.20951922418549240000e-001) (92, 4.49459977709849410000e-001) (93, 2.32581263226194070000e+001) (94, 2.78222215496810010000e+000) (95, 1.43033024086415140000e+000) (96, 1.66766007640209020000e-001) (97, 7.72625347784614420000e-002) (98, -8.41294628143628320000e-001) (99, 1.51276669514394060000e-001) (100, 1.30458308102556630000e+000) (101, -8.09039673789650910000e-001) (102, 4.49292069917519580000e-001) (103, 4.45623925460446100000e-001) (104, 1.09008362703942120000e-001) (105, -1.11203773931546980000e-001) (106, -4.15973098925954080000e-001) (107, -8.35165926100337460000e-002) (108, 8.38957147350919900000e-003) (109, -1.23269264447942580000e-001) (110, -2.11634471695990410000e+000) (111, -1.49485769056570980000e+000) (112, 2.78432413486235490000e-001) (0, 2.96950362065753270000e+001) (1, 2.79565680146201090000e-001) (2, 3.16318086949197730000e+001) (3, 3.50195638719276440000e+000) (4, 3.45659505839182880000e+000) (5, 3.16992098189710030000e+001) (6, -1.86837071557164280000e+002) (7, 4.31611204207086540000e-001) (8, -3.47621992279105640000e+000) (9, -1.68839893033757900000e+000) (10, 4.92749226697879350000e-001) (11, 2.17118847733353850000e-001) (12, 3.79611161129883800000e-001) (13, 3.82021277604597160000e+000) (14, 5.47123808333915470000e+000) (15, 3.17331974334278570000e-001) (16, 1.12354319449726540000e+000) (17, 5.33776659995066070000e-001) (18, 1.08758036179020290000e+000) (19, 3.97573401492956830000e-001) (20, 3.43784847884847480000e-001) (21, 1.63955617528045850000e-001) (22, 5.29253992799236710000e+000) (23, 7.00981125887332010000e+000) (24, 1.53988748763563750000e-001) (25, 9.13587563467009310000e-001) (26, 5.35898987922335210000e+000) (27, 7.51029740362419140000e+000) (28, 3.49009087242316160000e+000) (29, 4.28647248879034760000e+000) (30, 8.36101589397328660000e+000) (31, -2.00843118693328260000e+001) (32, 2.87979176769812830000e-001) (33, 1.17871586686687910000e+000) (34, 2.41012196271676520000e+000) (35, 2.98550931574257880000e-001) (36, 5.26473607411624520000e-001) (37, 6.00162016278594820000e+000) (38, 6.97961292963388140000e+000) (39, 8.15470026905791910000e+000) (40, 2.10221499719701210000e+000) (41, 2.19311563425950730000e+000) (42, 2.41620977760421800000e-001) (43, 2.69886037532594380000e-001) (44, 2.86018120439913370000e-001) (45, 1.21805462565693380000e+001) (46, 2.00513897401569350000e+000) (47, 2.08315832946851920000e+000) (48, 1.06601312512992510000e+001) (49, 4.43895299170309700000e+000) (50, 3.89833864243112950000e-001) (51, -1.35693481500904560000e-002) (52, 3.05166418466085050000e-001) (53, 1.37534619128483030000e-001) (54, 2.97536416450148520000e+000) (55, 2.91137885553561390000e+000) (56, 5.18697528271463570000e+001) (57, 2.03761683693242940000e+001) (58, 6.03457267390123730000e-001) (59, 1.22169314775583890000e-001) (60, 3.16473815067743750000e-001) (61, 2.91876379270638590000e-001) (62, 7.67823812828183240000e-001) (63, 7.19806181878994700000e+000) (64, 2.30003922972723100000e+001) (65, 3.40933993661905180000e+001) (66, 5.71643755779647480000e+000) (67, 7.10557908756256770000e-002) (68, 3.37071580395461090000e-001) (69, 2.09912003358619170000e+000) (70, 2.02823756433172980000e+001) (71, 5.06554664553211250000e+000) (72, 2.84930229085760220000e+000) (73, 5.18973712357610280000e+001) (74, 1.29796595674263780000e+001) (75, 7.26123902133473110000e-001) (76, 3.00667609273733820000e-001) (77, 5.56456938789714920000e-001) (78, 2.93447177273687780000e+001) (79, 2.77540544049182610000e+001) (80, 2.10435934497579340000e+000) (81, 2.33002889735698700000e+001) (82, 4.88982732885190670000e-001) (83, 5.02494637690825590000e-001) (84, 3.58751633877401330000e-001) (85, 2.98493396786351360000e+000) (86, 5.09027789987962510000e+001) (87, 2.32985799891694040000e+001) (88, 5.65735712815311590000e+000) (89, 6.57527782555152470000e+000) (90, 4.64936874061284590000e-001) (91, -3.66421061259315460000e+000) (92, -1.44564414228414900000e-001) (93, 6.55693081779402890000e-001) (94, 2.76920548922756460000e+001) (95, 1.01824955167704000000e+001) (96, 4.64362245214634930000e-001) (97, 6.58917955479335850000e-001) (98, 1.94581962574251620000e+000) (99, 2.74231741512917630000e-001) (100, 2.50608384858513500000e-001) (101, 7.00956779139405040000e+000) (102, 5.63557624391598200000e+000) (103, 4.50866164336390480000e-001) (104, 9.26729540008839610000e-002) (105, 1.45285962184305730000e-001) (106, 4.24135617727147360000e-001) (107, 3.72707964593136710000e-001) (108, 3.88203088077928360000e-001) (109, 4.15923793584067170000e-001) (110, 4.52222505766332550000e-001) (111, 2.97079905883466610000e-001) (112, 6.01008765837043990000e-001) (0, 3.47564735876243790000e+000) (1, 7.55337732639467130000e-001) (2, 5.81830386413968480000e+001) (3, 4.36643366574670380000e+000) (4, 4.44697565913437300000e+000) (5, 5.81650943051919570000e+001) (6, 1.00666537488235910000e+000) (7, 9.40974222704221150000e-001) (8, 2.04447129898595870000e-001) (9, 5.47140645810753130000e+001) (10, 4.82564752040886870000e+001) (11, 4.38124540696999350000e+000) (12, 4.52023891930422210000e+000) (13, 5.50548804903240980000e+000) (14, 5.17130841006083660000e+000) (15, 3.88825713797940060000e+000) (16, 1.37155595787771410000e+000) (17, 1.26645232452104980000e+001) (18, 3.21815891921125540000e+000) (19, 4.22257921638547310000e-001) (20, 4.71720839207533940000e-001) (21, 3.40611521530897650000e+001) (22, 7.12778999908510520000e+000) (23, 5.48028080944582820000e+000) (24, 1.54681687075402770000e+000) (25, 6.86412121382927860000e+000) (26, 1.12027532669616880000e+001) (27, 7.75289032053583900000e-001) (28, 7.18842471387629800000e-001) (29, 1.78389839297365050000e+000) (30, 1.97171781174886740000e+000) (31, 1.00790391214504280000e+000) (32, 9.30976649823954120000e-001) (33, 4.40082003205214710000e+000) (34, 5.53874310625151360000e-001) (35, 3.99333792912129890000e-001) (36, 4.24183300718407820000e-001) (37, 5.10730976749883550000e-001) (38, 3.19532918127450660000e-001) (39, 1.06026118539723280000e+000) (40, 6.75735633061810390000e-001) (41, 6.87881382462240510000e-001) (42, 2.82100719887590390000e-001) (43, 4.32827231185470730000e-001) (44, 1.03071491442073240000e+000) (45, 3.16385965122880200000e-001) (46, 4.50797860703533780000e-001) (47, 4.97359986894071400000e-001) (48, 5.87187306967595360000e-001) (49, -9.61091839482460660000e-002) (50, 3.49364300918911850000e-001) (51, 8.79443939663166030000e-001) (52, 5.79431508306872180000e-001) (53, 3.45917719800640120000e-001) (54, 2.92758845377368460000e-001) (55, 1.70522872780631610000e-001) (56, 6.53634469803397900000e-001) (57, 6.13073304089031930000e-001) (58, 6.33776840196069950000e-001) (59, 2.36624192315176400000e+000) (60, 1.53268315545853300000e+000) (61, 1.22097407993501710000e+000) (62, 2.31501471104501010000e-001) (63, 1.49936381805413470000e-001) (64, 9.58119070859952290000e-001) (65, 9.99037337218576460000e-001) (66, 4.55983714218989260000e-001) (67, 7.29756686621441330000e-001) (68, 2.38968545447841440000e+001) (69, 9.37694688721889950000e+000) (70, 7.61123933662594570000e-001) (71, 3.25892428533538280000e-001) (72, 1.26364255398282620000e+000) (73, 1.26222920174898490000e+000) (74, 4.08918093367974520000e-001) (75, 3.52076851568433770000e-001) (76, 1.08080967307397180000e+000) (77, 8.32077007099888100000e+000) (78, 1.04904371192870620000e+001) (79, 6.13254467555557700000e+000) (80, 1.27612690703420180000e+000) (81, 2.98021090061970280000e+000) (82, 6.82101995922530070000e-001) (83, 4.99834653307285830000e-001) (84, 5.95876896790701220000e-001) (85, 5.53453296015894550000e+001) (86, 7.67427487277584500000e+000) (87, 3.22009902351594520000e+001) (88, 2.53421896967955500000e+000) (89, 1.01551945629749580000e+000) (90, 2.74614958003297990000e-001) (91, -3.67934271008997890000e+000) (92, 3.37090183839793560000e-001) (93, 9.24940529867892990000e-001) (94, 4.49275689934002640000e+000) (95, 6.57288478942579250000e+000) (96, 5.63265009260482950000e-001) (97, 1.10264751409604430000e+000) (98, 5.16950759098184660000e-001) (99, 1.77207584527209640000e-001) (100, 3.62970440069147750000e-001) (101, 8.00679447127772390000e-001) (102, 1.59711984779451050000e+000) (103, 6.08009124031702090000e+000) (104, 3.08088021066541870000e-001) (105, 6.14472953225230210000e-001) (106, 3.33145660949221690000e+000) (107, 4.33408535148553930000e+000) (108, 9.15092448945054260000e-001) (109, 1.12831806508267780000e+000) (110, 2.49862271260507460000e+000) (111, 4.83866908798432420000e-001) (112, 9.38851704267271940000e-001) (0, -2.21611410429339790000e-001) (1, -4.56301697935199080000e+000) (2, -1.08310233695380860000e+001) (3, -2.29998149618848040000e+000) (4, -2.25275249157846340000e+000) (5, -1.08975028627162070000e+001) (6, -4.96520589359709330000e-001) (7, 3.47070248048030020000e+000) (8, 2.97233191971226550000e-001) (9, -1.60769452856831780000e-001) (10, -9.66050941730677990000e-002) (11, 1.29588684924160120000e-001) (12, 2.82958272878272520000e-001) (13, -8.73100909624856400000e-002) (14, 2.70983900815896070000e-001) (15, 2.32786436503987780000e-001) (16, -3.69134345090816480000e+000) (17, -9.32063246590873920000e-001) (18, 6.16270520387160880000e-002) (19, -1.04491889642586340000e-001) (20, -9.63556677056824490000e-002) (21, 2.14354246706719490000e-001) (22, 1.52376989399314160000e-001) (23, 6.24434754662468590000e-002) (24, -2.96975043947998060000e-001) (25, -5.02854829321954580000e-001) (26, -4.14732659873051860000e-001) (27, 1.24732720497100920000e-001) (28, -6.49163629402145920000e-002) (29, 2.75081065244604740000e-001) (30, 4.37906998796358800000e-001) (31, 7.37668344447078160000e-002) (32, -7.99424892042621790000e-001) (33, -2.15250598310555540000e-001) (34, -1.12651377375271270000e-001) (35, 2.08992413545152550000e-001) (36, -1.15180843052674270000e-001) (37, -2.90932003768659520000e-001) (38, 2.79246870552830040000e-001) (39, 3.30571927429115840000e-001) (40, -4.19823599437355640000e-001) (41, -3.01335831211089420000e-001) (42, -2.62307527096698190000e-001) (43, 1.31587370376031910000e-001) (44, -2.55572671874305870000e-002) (45, -3.43918659534823760000e-001) (46, -2.64429953362635530000e-001) (47, 4.42351773194713250000e-001) (48, 8.70431123537768860000e-001) (49, -3.30134300746687310000e-001) (50, 1.33389572828012230000e-001) (51, -4.45112792850570200000e-001) (52, -3.70967388265434180000e-001) (53, -3.53021151675696130000e-002) (54, 8.34173672400899060000e-003) (55, -2.17788151091641080000e-002) (56, -7.46425667655215670000e-001) (57, 6.31813210899730300000e-001) (58, 1.06282460933335960000e-001) (59, 4.67341932643897400000e-002) (60, -4.51979496164641240000e-003) (61, -6.40902308522709190000e-002) (62, -2.17171376634550970000e-001) (63, -8.79700660301031420000e-002) (64, 2.58967961679677450000e-001) (65, 1.09703633946258190000e-001) (66, 7.52837684228000350000e-001) (67, -1.15930868633668680000e-001) (68, 2.81622373137780100000e-001) (69, -3.28507635484872550000e-001) (70, -7.68050724537234360000e-002) (71, -6.02575917535113570000e-002) (72, -4.75022614702148960000e-001) (73, 3.53232002426871190000e-001) (74, 2.70896850097871620000e-001) (75, 2.91713855070538040000e-001) (76, -3.65134578579466630000e-001) (77, -2.81022409021346900000e-001) (78, -4.68854529916249210000e-001) (79, -4.67990128790074680000e-001) (80, 2.89693821130699030000e-001) (81, 1.74255269632921680000e-001) (82, -1.26340794080467920000e-001) (83, -8.79884483363994270000e-001) (84, -5.59872019457538170000e-001) (85, -5.28803418897240580000e-001) (86, -5.29013078918137200000e-001) (87, -5.84446103458784670000e-001) (88, 1.08937013953687820000e-001) (89, -2.06612174270237150000e-001) (90, -5.04204241124186010000e-002) (91, 6.45071823889995840000e-001) (92, -1.00672466060782280000e+000) (93, -4.56886631684093770000e-001) (94, 4.92721743804938190000e-002) (95, -2.58300285922908550000e-001) (96, 2.69975236160039320000e-001) (97, -1.98857750895829550000e-001) (98, -1.16682579117422730000e-001) (99, 2.81495455686161040000e-002) (100, -2.55961535516136320000e-001) (101, -2.36821194553482610000e-002) (102, 2.41027550467190350000e-002) (103, -2.50453380761492590000e-001) (104, -1.14479412501015120000e+000) (105, -6.75598652302329070000e-001) (106, -2.35989035544806800000e-001) (107, -1.92697002964541480000e-001) (108, -2.03635043624578540000e-001) (109, -8.87615969524690880000e-002) (110, -1.46745249185664420000e-001) (111, -1.72802547047733590000e+000) (112, -1.22520702435937550000e-001) (0, 2.97899519794740580000e+001) (1, 5.34972543776815690000e-001) (2, 1.63522184189302100000e+001) (3, 7.18686782486669950000e-001) (4, 8.27658952079231900000e-001) (5, 1.64859037236566510000e+001) (6, -1.55523196991648880000e-001) (7, 1.48657121129773760000e+000) (8, 4.68061380539739220000e-001) (9, 3.60513342471927900000e-001) (10, 3.91172015048637080000e-001) (11, -8.08722362498685340000e-001) (12, -3.53105461940237400000e-001) (13, 6.87940904729158030000e-001) (14, 3.00615147697486580000e+000) (15, 4.05933007222272100000e-001) (16, 1.24197943430346450000e+000) (17, 1.01411968088581660000e+000) (18, 4.00003972686749750000e-001) (19, 2.54159144897524340000e-001) (20, 4.26311326260642940000e-001) (21, 6.05474945748838200000e-001) (22, 6.14724818758222910000e+000) (23, 2.42321779099809700000e+000) (24, 3.03131551857729220000e-001) (25, 4.31394037222802120000e-001) (26, 4.45559655056291190000e-001) (27, 3.32819950503018710000e-001) (28, 3.59528935276013590000e-001) (29, 4.02474486398388010000e-001) (30, 5.89432162571120300000e-001) (31, 4.91804670856183010000e-001) (32, 4.24111197532769270000e-001) (33, 3.35453523798655840000e-001) (34, 2.65425177806134340000e-001) (35, 2.49844226263760900000e-001) (36, 2.94740923869039550000e-001) (37, 3.03122498792862070000e-001) (38, 9.39809816351894640000e-001) (39, 6.16457682865437120000e-001) (40, 1.15855168246580460000e+000) (41, 4.19426558323653550000e-001) (42, 3.59676116782435880000e-001) (43, 8.15513882027615880000e-002) (44, 5.66518932210964830000e-001) (45, 2.20698318726922290000e+000) (46, 8.90562429261526620000e-001) (47, 5.86773273164671210000e-001) (48, 1.00567508635593830000e+000) (49, 4.83280180795611410000e-001) (50, 3.55618743947511200000e-001) (51, 3.10680435361753270000e-001) (52, 2.62794136427663530000e-001) (53, 5.24861442383111940000e-001) (54, 3.93838502049430770000e-001) (55, 3.56424482438816360000e-001) (56, 1.52689396345449000000e+000) (57, 4.63508910507825970000e+000) (58, 4.58224022499270080000e-001) (59, 3.83585760362917640000e-001) (60, 3.94244378376242990000e-001) (61, 3.49443107178092350000e-001) (62, 3.69000091255072330000e-001) (63, 4.22562502870740260000e-001) (64, 7.11100533130676200000e+000) (65, 2.32168970881933990000e+001) (66, 4.38093680918853030000e-001) (67, 4.89628327338701150000e-001) (68, 4.72412134196670390000e-001) (69, 1.09378580389568870000e+000) (70, 1.43738657167577720000e+000) (71, 9.68058663889481140000e-001) (72, 1.07697262442372900000e+001) (73, 5.95117015233080050000e+001) (74, 2.32050501641887410000e+001) (75, 7.72715573537398170000e-001) (76, 4.40058557439220010000e-001) (77, 2.57137915856119110000e+001) (78, 2.99847391224346000000e+000) (79, 1.12453781264606100000e+000) (80, 2.33160670115461460000e+001) (81, 2.32484888855391530000e+001) (82, 1.12175862878609060000e+000) (83, 2.01066520414710710000e+000) (84, 1.17609667961317290000e+000) (85, 2.26065750447528260000e+000) (86, 2.58330993862400860000e+000) (87, 1.06469337027794420000e+000) (88, 1.38218153068973340000e+000) (89, 1.09443916313704870000e+000) (90, 5.63220172347982160000e-001) (91, 7.59065102098995110000e-002) (92, 1.68132393842242820000e-001) (93, 9.35610396674664950000e-001) (94, 1.09414643451851430000e+000) (95, 7.34314309869479650000e-001) (96, 4.74453714898113390000e-001) (97, 5.81589859647618560000e-001) (98, 7.87019916856033120000e-001) (99, 2.84557514690559620000e-001) (100, 4.56597680603996360000e-001) (101, 3.42430439540555240000e-001) (102, 6.29368527519563400000e-001) (103, 8.04851002224475030000e-001) (104, 5.10394607778424490000e-001) (105, 3.43347324416243050000e-001) (106, 3.41789455664655350000e-001) (107, 5.08535064569531790000e-001) (108, 4.18965962799814740000e-001) (109, 5.02836630007901240000e-001) (110, 2.33399872976131700000e+001) (111, 2.93114001483744570000e+001) (112, 4.72815284536543870000e-001) (0, 1.90907780511149540000e+000) (1, 1.73780524691881280000e+000) (2, 2.96981763155197200000e-001) (3, 4.18675915789147920000e-001) (4, 3.41088024007998040000e-001) (5, 3.49496412375226220000e-001) (6, -1.99472223593026110000e+002) (7, 7.08873564543098910000e-001) (8, -1.26046927748009690000e-001) (9, -4.91849255924052210000e-001) (10, -6.46263217916390300000e-001) (11, -2.15208978522612670000e-001) (12, -3.02313496352635130000e-002) (13, 4.05312257604064590000e-001) (14, -1.86487032339506720000e+000) (15, 1.17492951013781750000e-001) (16, -1.35155152295544310000e-001) (17, -4.04573414430450810000e-001) (18, -1.00823993321844220000e+000) (19, -2.36917285451737430000e-001) (20, -6.61831912893423800000e-001) (21, -2.61629757362750400000e+000) (22, -1.12693683038141490000e+000) (23, -1.09492886499857540000e-001) (24, -3.34740997181756320000e-001) (25, -5.03859839235492820000e-001) (26, -7.74879460369493180000e-001) (27, -2.52769696660579690000e-001) (28, -3.80999195530469130000e-001) (29, -4.90154134879357490000e-001) (30, -5.67049980120185800000e-002) (31, 4.90391359581397870000e-002) (32, -3.79693631513040250000e-001) (33, -2.56832341740021730000e-001) (34, -4.69555748849233620000e-001) (35, -3.17957230961125940000e-001) (36, -1.08769685939626910000e-001) (37, -1.41732260385102310000e-001) (38, -2.08309016515920790000e-001) (39, 7.09499904398145640000e-002) (40, -1.77600212588468920000e-001) (41, -1.67549889460684890000e-001) (42, -2.37312042662528840000e-001) (43, 3.16947468789271160000e-001) (44, 1.09420328875865710000e-001) (45, 5.44087904359693770000e-002) (46, -1.55435088035078630000e-001) (47, -1.84825146644228080000e-001) (48, -5.33777833465768210000e-002) (49, 6.91347790223121760000e-001) (50, -1.39678302980336100000e-002) (51, 2.28341248939967250000e-002) (52, -2.85686229715577500000e-001) (53, 6.82337388585458340000e-002) (54, -3.30604404541528580000e-002) (55, -2.02683216677161940000e-001) (56, 9.41927564921835050000e-001) (57, 2.79848876343463060000e-001) (58, 1.03957273910913760000e-001) (59, -9.84830178414076160000e-002) (60, 3.21129893792145780000e-002) (61, 1.34475051451403070000e-001) (62, 9.55199013398375240000e-002) (63, 1.73991451144719260000e-001) (64, 2.85701834983011340000e+000) (65, 5.58973563579849840000e-001) (66, -1.98150890031099700000e-001) (67, -7.11518585808696420000e-001) (68, -1.08638030607256320000e+000) (69, -1.31605026397992460000e-001) (70, 1.94768566964796000000e-001) (71, -6.63283272768274840000e-002) (72, 7.33392903175524750000e-001) (73, 2.32778816535105790000e-001) (74, -9.95314495393485180000e-002) (75, -1.23669251574058240000e+000) (76, -8.69189237709008800000e-001) (77, -2.32608796377868830000e-001) (78, -1.42770971133683060000e-001) (79, 7.94439769751780800000e-003) (80, 2.75365999715096120000e-001) (81, 3.07906738089682770000e-001) (82, 5.29693689136807030000e-001) (83, 1.24632394021760560000e-001) (84, -2.82653457900686240000e-001) (85, -1.22533242423874090000e-001) (86, -1.33379137070117590000e-001) (87, -1.39726315454488990000e-001) (88, 8.76991390989147470000e-002) (89, 2.38462389572710960000e-001) (90, 1.67660146478029930000e-001) (91, 8.16383051910662850000e-001) (92, -4.72628472732627980000e-001) (93, -6.46994644351372020000e-002) (94, -1.58242642674788580000e-001) (95, -1.46248174760132630000e-001) (96, -5.52650817036172140000e-001) (97, 1.52358447538103600000e-001) (98, 1.62518097642906450000e-001) (99, 2.32738699334265550000e-001) (100, 5.20244331238949860000e-001) (101, -2.11951676676771760000e-001) (102, 2.71563106049893910000e-002) (103, 1.82982281945129940000e-001) (104, -6.75119255547806160000e-001) (105, -4.51372103288491310000e-001) (106, -9.12626655355614210000e-002) (107, -1.72981857615454590000e-002) (108, -1.24949278823870970000e-001) (109, 6.94263906722434040000e-002) (110, 3.68274362008428820000e-002) (111, -1.72573406786096810000e-001) (112, -5.70014254776394990000e-002) (0, 4.41188336528320590000e+001) (1, -3.16663012376072960000e+001) (2, 6.31084974902187850000e+000) (3, 1.49091325696710780000e+001) (4, 1.48171220702531400000e+001) (5, 6.42696913551781710000e+000) (6, 4.30270721075337580000e+002) (7, 1.74253104398185380000e+000) (8, 1.20561052254630730000e+001) (9, 6.33696556779139830000e-001) (10, 3.56454046176497560000e+000) (11, 4.96198041255084200000e+000) (12, 9.35424268696040250000e+000) (13, -2.07699768434112550000e+000) (14, -8.77393195222193080000e+000) (15, 8.71004558574958130000e+000) (16, 2.75599426630492150000e+000) (17, 4.46269243534074540000e-001) (18, 2.48302380153734930000e-001) (19, 5.66291050767910310000e-001) (20, 3.15321469735709570000e-001) (21, -3.79655029443918710000e-001) (22, -6.35712616683472290000e-002) (23, 9.95106578554517540000e+000) (24, 4.79847321616727940000e-001) (25, 4.35797371537580360000e-001) (26, 4.62824265906817080000e-001) (27, 6.23626849218852920000e-001) (28, 7.02105330949546190000e-001) (29, 6.68300460621458650000e-001) (30, 5.00782455844731270000e+000) (31, 2.07629807870623570000e+000) (32, 2.59513340507314280000e-001) (33, 3.36538684612406990000e-001) (34, 3.20834697417263390000e-001) (35, 4.05163632145420170000e-001) (36, 3.84332664267655830000e-001) (37, 3.20090060117303620000e-001) (38, 8.68584624741484230000e-001) (39, 8.67937426470820480000e+000) (40, 4.00092325452049700000e-001) (41, 1.05753792107550980000e+000) (42, 1.49459136142293760000e+000) (43, 7.06960827423068580000e+000) (44, 2.77922961211654610000e-001) (45, 2.46288923467479550000e-001) (46, 7.66639467641649590000e-001) (47, 1.16182087892122210000e+000) (48, 1.82937170556161250000e+000) (49, 5.13631013662422480000e-001) (50, 5.72329191661438140000e-001) (51, 5.35593658337603080000e-001) (52, 2.39521878203499900000e-001) (53, 2.70898696224192210000e-001) (54, 2.30820280602762860000e-001) (55, 5.04952396898967090000e-001) (56, 3.93842898296788760000e-001) (57, 7.91369307795405600000e-001) (58, 2.64289205763211130000e-001) (59, 3.98636384786974160000e-001) (60, 5.59883726853341530000e-001) (61, 2.79406204689854390000e-001) (62, 2.48154777147408270000e-001) (63, 2.62592307326433960000e-001) (64, 5.86454969989407940000e-001) (65, 9.18627610472952160000e-001) (66, 3.23283952026150680000e-001) (67, 6.44781992493891680000e-001) (68, 8.07732642580391680000e-001) (69, 6.91717478169640910000e-001) (70, 6.24914261718112820000e-001) (71, 7.11578974566605460000e-001) (72, 1.14168726848605930000e+001) (73, 5.10801578652595990000e+000) (74, 2.24282924688675630000e+000) (75, 2.62078763315633160000e+001) (76, 1.63332534732072940000e+000) (77, 3.58379919131683380000e-001) (78, 5.76074805315965890000e-001) (79, 1.99507941501066900000e+000) (80, 4.79105182381908020000e-001) (81, 6.36408389809492770000e-001) (82, 4.45959655225423580000e-001) (83, 8.64145994158429520000e-001) (84, 5.34828452950985690000e-001) (85, 2.18939915633811320000e-001) (86, 4.55080249736954380000e-001) (87, 1.94572028341578560000e+000) (88, 5.46888804230128760000e-001) (89, 3.16890958465133380000e+000) (90, 6.08016875938842900000e-001) (91, 5.82099627894821920000e-002) (92, 1.97624516852548580000e+000) (93, 5.66660659672342140000e-001) (94, 4.41594411819954240000e-001) (95, 9.90717276038947880000e-001) (96, 3.76980745690421780000e-001) (97, 3.69910156190234040000e-001) (98, 5.89785248358453580000e-001) (99, 1.29050772409291790000e+000) (100, 6.30517127095334920000e-001) (101, 3.10691506544699620000e-001) (102, -2.32280315479702210000e-001) (103, 2.81688892948186390000e-001) (104, 3.40303732031502490000e-001) (105, 2.94305340220407140000e-003) (106, 2.60116999347540730000e-001) (107, 5.13116945433556570000e-001) (108, 4.11736995610680500000e-001) (109, -6.68269133253580280000e-001) (110, 3.40543680186686570000e-001) (111, 4.29676365475304580000e-001) (112, 2.67387347150804420000e-001) (0, 9.40518758142144410000e+000) (1, 7.31885886940851770000e-001) (2, 1.36725417663327350000e+001) (3, 4.10434424484542150000e-001) (4, 5.52127541830309210000e-001) (5, 1.36910354189520620000e+001) (6, -2.29004121230242390000e+001) (7, 2.48604889365174860000e-001) (8, 3.06344872532287870000e-001) (9, 4.37083307604002160000e-001) (10, 4.03913822639785700000e-001) (11, -5.80452514262956680000e+000) (12, -2.67317369905753300000e+000) (13, 4.80539954672218490000e-001) (14, 4.82236702552094550000e-001) (15, -3.94049988589789290000e-001) (16, 6.60265725729044850000e-001) (17, 3.71234172145511300000e-001) (18, 7.46546878437823300000e-001) (19, 3.56619745385044150000e-001) (20, 4.70404353805801980000e-001) (21, 2.76129809600524560000e+000) (22, 4.97563565867539080000e-001) (23, -3.06198505975467110000e-001) (24, 6.82135605034437150000e-001) (25, 3.86289776449900200000e-001) (26, 4.33106816581085910000e-001) (27, 3.10143454328793370000e-001) (28, 2.78667623781641950000e-001) (29, 1.58516442932071850000e+000) (30, 4.12530791009165680000e-001) (31, 3.94746345955591550000e-001) (32, 7.39836824058675010000e-001) (33, 6.48836347939228950000e-001) (34, 5.09838834226602030000e-001) (35, 3.02970431284729060000e-001) (36, 4.30742625609964790000e-001) (37, 1.41453651165822510000e+000) (38, 9.14756824609649580000e+000) (39, 4.11435139496152680000e-001) (40, 1.27521769137523040000e+000) (41, 4.32241598914424040000e-001) (42, 2.12448011699827440000e-001) (43, -3.41616739578444130000e-001) (44, 8.26548938489135020000e-001) (45, 1.34053059063191340000e+000) (46, 4.94107374684862060000e+000) (47, 6.49217666360428210000e-001) (48, 2.88355502565643070000e-001) (49, 3.95919130286588090000e-001) (50, 5.25942207488049760000e-001) (51, 2.12827414400812740000e-001) (52, 6.14898760347409310000e-001) (53, 1.52371666838775900000e+000) (54, 6.72583083826899350000e-001) (55, 3.21710611111214180000e-001) (56, 2.19585024775732970000e-001) (57, 5.18310923787636320000e-001) (58, 9.06073436591531230000e+000) (59, 9.20218444568102090000e-001) (60, 5.19252445203860380000e-001) (61, 1.69023619569970050000e+000) (62, 3.70638444963068360000e-001) (63, -7.92000969047595760000e-001) (64, 3.39152810145865400000e-001) (65, 1.94960126553080150000e+000) (66, 1.54768697213285520000e+000) (67, 4.93085215242154260000e-001) (68, 5.72894523308578820000e-001) (69, 1.08509491505359570000e+001) (70, 4.40292686403522260000e-001) (71, 6.04797281536625240000e-002) (72, 8.97392406188736300000e+000) (73, 5.66127710738872100000e+001) (74, 9.88523238422603480000e-001) (75, -8.38555594710995580000e-002) (76, 3.98517150828585240000e-001) (77, 1.94946713067226580000e+001) (78, 2.88265007366109530000e+001) (79, 4.20347565635538100000e-001) (80, 7.31947089059811160000e+001) (81, 3.10770474545286990000e+001) (82, 1.14677524584738500000e+000) (83, 5.21167483473986560000e-001) (84, 4.77221305293312970000e-001) (85, 1.67819726947878320000e+000) (86, 7.25933525399371950000e+000) (87, 7.26865605944952420000e-001) (88, 3.50331915534359160000e+000) (89, 4.22662670884922210000e-001) (90, 4.38305033298573120000e-001) (91, -2.68079505014504120000e-001) (92, -1.06303213537690260000e+000) (93, 5.08722170210990420000e-001) (94, 6.33929855548848840000e-001) (95, 6.61734571891763770000e-001) (96, 6.82920716484664130000e-001) (97, 5.99386782257134040000e-001) (98, 6.32012725976704550000e-001) (99, 2.99078173031019690000e-001) (100, 3.21871189126726690000e-001) (101, 3.09144901012926240000e-001) (102, 1.40816138499352130000e+000) (103, 2.23467481871743520000e+000) (104, 4.86922126082992850000e-001) (105, 3.96327324801826470000e-001) (106, 4.18953720795051330000e-001) (107, 4.94454369605625220000e-001) (108, 3.79821075674296630000e-001) (109, 7.82266970756013810000e-001) (110, 5.67173581558045760000e-001) (111, 5.23074386708226150000e-001) (112, 4.77917523828037210000e-001) (0, 9.59497527271477860000e-001) (1, 2.79648405878927160000e+000) (2, -1.40500452264517680000e-001) (3, -1.01391202014038400000e+000) (4, -1.01955777217763720000e+000) (5, -1.38101770588149540000e-001) (6, -1.72021527167002890000e+002) (7, -8.72551394039700280000e-001) (8, 6.63806736125160250000e-002) (9, -7.17595309560563050000e-001) (10, -9.79741425037995300000e-002) (11, 2.44018755140220090000e-001) (12, 1.76561808102981390000e-001) (13, -8.00387243001287940000e-001) (14, 3.84719175053671870000e-001) (15, 5.80567991058526190000e-001) (16, -1.65295263398653690000e-001) (17, 1.10745737346966440000e+000) (18, -4.32796705464945100000e-003) (19, -9.00418354654006440000e-001) (20, -5.68903537972022090000e-001) (21, 1.76414452640731130000e-001) (22, 1.00600980327053220000e+000) (23, 1.55217343702962960000e+000) (24, 8.61338926368106940000e-001) (25, 2.31884699514945810000e-001) (26, -8.46924919794164180000e-002) (27, -8.97169614421644670000e-001) (28, -3.47989245328804930000e-001) (29, -7.23878125354760590000e-001) (30, -4.26008410730587400000e-002) (31, 2.68932531502038110000e+000) (32, 1.40590481751205480000e+000) (33, 1.94874373229760890000e-001) (34, -2.02581759233298800000e-001) (35, 2.31601049287868370000e-001) (36, 4.60485161754069370000e-002) (37, -1.14617863951854540000e-002) (38, -8.74117583296551010000e-002) (39, -1.19875133697041680000e+000) (40, 4.38243941759773120000e-002) (41, -4.54183793584847160000e-002) (42, -3.26854417303903130000e-001) (43, -1.55631147967768530000e+000) (44, -3.20149318112987250000e-001) (45, 2.12868991147564520000e-002) (46, -5.73720312245130860000e-002) (47, 1.29581003640006130000e-001) (48, -4.33887418892246950000e-002) (49, 1.79049357179564630000e-001) (50, -4.18877767810741080000e-003) (51, -2.77681390862894730000e-001) (52, 3.96348609448323240000e-002) (53, 3.32915018028183960000e-001) (54, 9.91379739670972260000e-002) (55, 1.29787629950639570000e+000) (56, 6.97268889066135040000e-001) (57, -1.86396278812567330000e-002) (58, 1.17402946520276660000e-001) (59, 1.70412756451522650000e-001) (60, 1.69460608199699300000e-001) (61, 5.25186250069876630000e-001) (62, 6.43691584960539580000e-001) (63, 3.15815075796785800000e-001) (64, -2.06161940439279930000e-001) (65, 1.01890942693622260000e-001) (66, -1.93543690594550930000e-001) (67, -4.93786936931988110000e-001) (68, 3.29424606374067590000e-002) (69, 2.83279844719566020000e-001) (70, 8.00593721311895210000e-002) (71, -1.84692597619758770000e-002) (72, 3.90958331797981660000e-002) (73, 1.47937734270233430000e-002) (74, -5.28734793064057020000e-001) (75, -1.97198490528865160000e+000) (76, -8.92137202929091490000e-001) (77, -2.07081589883895470000e-001) (78, 3.43498120667925300000e-002) (79, -1.14863894067307400000e-001) (80, 2.85148398089722200000e-001) (81, -1.67965914930176490000e-001) (82, -1.43507411820067320000e-001) (83, -8.64341702565592730000e-001) (84, -1.17206186736816950000e+000) (85, -1.40333271078624950000e-001) (86, -1.91494327197200080000e-001) (87, -1.73026805707276800000e-001) (88, 6.83564690210237250000e-001) (89, 2.20024078326703230000e-001) (90, 1.25741534665880090000e-001) (91, 1.11933774325665000000e+000) (92, -8.63643557820818340000e-002) (93, -3.06926352903741260000e-001) (94, -5.40245726738842750000e-001) (95, -2.43693988109575210000e-001) (96, 6.12446456536030250000e-001) (97, 3.12535986142492450000e-001) (98, 1.53117272031823020000e-001) (99, 6.28386627980740720000e-003) (100, -8.76594515676976100000e-002) (101, -2.85358480606797190000e-001) (102, -4.50285833258347260000e-001) (103, -4.92083276262318820000e-002) (104, 3.72934772476031310000e-002) (105, -2.77891271454539180000e-001) (106, -6.96862960807859010000e-002) (107, 7.56001229716706230000e-003) (108, 2.02032986229979700000e-001) (109, 5.70452902876766100000e-002) (110, 1.69008077291215610000e-001) (111, -5.15873333164212240000e-001) (112, -9.67337233237639680000e-002) (0, 3.59375119659432330000e-002) (1, -4.38769909756137060000e-001) (2, 2.97264915707253860000e+000) (3, -3.99955230108621220000e-001) (4, -3.82688384148200170000e-001) (5, 3.06433617015753070000e+000) (6, -2.40512121486727320000e+001) (7, -5.85094137145031220000e-001) (8, -5.57764397323676110000e-001) (9, 1.50474257501521990000e-001) (10, -1.41464262079617650000e-001) (11, -5.00786350429563430000e-001) (12, -1.55752872643707190000e+000) (13, -1.88010305715477170000e-001) (14, -6.61467053751424850000e+000) (15, -2.87510089860363480000e+000) (16, -6.39634578630967840000e-001) (17, -7.39002222801102840000e-001) (18, -4.60772569461905150000e+000) (19, -5.56896922677674840000e+001) (20, -5.55755382133320810000e+001) (21, -7.42605608353727400000e+000) (22, 8.99287232939381120000e-002) (23, -1.29309681796726260000e+000) (24, 1.09798884962225720000e-002) (25, -1.47818611117544380000e-001) (26, -4.02793029099014090000e+000) (27, -5.77265794928215840000e-001) (28, -1.09162293164398700000e-001) (29, 1.34346454337685910000e-001) (30, 1.99169685406330510000e-001) (31, -6.51147548976314240000e-003) (32, 1.95675698861974170000e-001) (33, -3.57847073115937710000e-002) (34, -7.84446915588296930000e-001) (35, -3.35788291822794530000e-002) (36, -1.54171556935419450000e-001) (37, 3.56060570291960030000e-002) (38, 2.42999139261148410000e-001) (39, 1.72477218542725940000e-001) (40, -3.48918956759968480000e-001) (41, -4.63176191671781370000e+000) (42, -2.91929557653604270000e+001) (43, -9.61138923639005500000e+000) (44, -3.23526724303602940000e+000) (45, -6.16189461287885430000e-001) (46, -1.24964660058936420000e-001) (47, 1.84398344576656830000e-001) (48, -5.00122383731530620000e-001) (49, 1.38063720593238380000e-001) (50, 4.23308223144539530000e-002) (51, -1.78479969832474270000e-001) (52, 1.11007455859971400000e-001) (53, -9.15028939208873400000e-002) (54, 6.43281225241403160000e-002) (55, 3.41620529314220270000e-001) (56, -2.95753236965112730000e-002) (57, 2.13242042682965820000e-001) (58, -6.06478216414016380000e-002) (59, -3.26832531282967020000e-001) (60, 1.84966364292470150000e-001) (61, 4.81796176681279000000e-001) (62, 2.34662431360627060000e-001) (63, 2.79016909408357220000e-001) (64, -4.55149023375461680000e-002) (65, -1.17771286806062250000e-002) (66, -1.85150828642016370000e-001) (67, -1.03780741124790120000e-001) (68, 1.13639184543071470000e-001) (69, 2.52846352499194070000e-001) (70, -1.83575582147469500000e-001) (71, 6.75653045977527290000e-001) (72, -1.16811434980820640000e-001) (73, -9.12266278839691110000e-002) (74, -1.80532317396828510000e-001) (75, -1.34255795247059470000e-001) (76, -1.11092313079246660000e-002) (77, -1.33514028659727220000e-001) (78, -2.88400706305392660000e-001) (79, -4.98891996670188190000e-001) (80, -5.60679417093340040000e-002) (81, -2.31868643355139400000e-001) (82, 7.96866690149129750000e-002) (83, -5.78895119485984380000e-001) (84, -1.72763480168595880000e+000) (85, -1.79831933482275730000e+000) (86, -4.37960185275446670000e-001) (87, -5.41883539142799240000e-002) (88, 8.76926334469250450000e-002) (89, -3.51713074294481840000e-002) (90, -1.66266316874731030000e+000) (91, -6.75747553171126380000e+000) (92, -4.34775438124864790000e+000) (93, -2.27527287522530710000e+000) (94, -4.65177309981978700000e-001) (95, 6.23009549095554370000e-002) (96, 3.38157737884477890000e-001) (97, 1.78534439223748430000e-001) (98, -9.23816371969377880000e-002) (99, -1.86121050833455540000e-001) (100, -1.41483784351373900000e+000) (101, 4.74085979931376870000e-002) (102, 8.71428052967266750000e-002) (103, -2.44872821777235990000e-002) (104, 1.58106574944959600000e-002) (105, 7.92203833475863820000e-002) (106, -1.73518472609649270000e-002) (107, 2.32029740521968090000e-001) (108, 5.60792930850390610000e-001) (109, 1.42270265145240720000e-001) (110, -1.01041292066857680000e-001) (111, -4.10643459263481500000e-001) (112, -2.95828069676366860000e-002) (0, 1.30766156910418880000e+000) (1, 4.96278129216282690000e+001) (2, -4.63305662990794950000e-001) (3, 1.45211420407817960000e+000) (4, 1.46018305185466480000e+000) (5, -5.38500976611292260000e-001) (6, 5.43394311058343790000e+001) (7, 2.02254021173480680000e+000) (8, 1.03017282273350870000e+000) (9, 8.44643870010973960000e-001) (10, 7.45548683383449600000e-001) (11, 3.95520407335769250000e+000) (12, 1.38178391557683230000e+000) (13, -1.74516408911645690000e-001) (14, 7.14020014554120760000e-002) (15, 4.02781001836139350000e-001) (16, -3.59781115521221050000e-001) (17, 1.69599263445937170000e+000) (18, 6.30214477679456820000e-001) (19, 5.99074900432941200000e-001) (20, -6.00473196991236700000e-002) (21, -2.37414589278278270000e-001) (22, -1.52589871332703030000e+000) (23, -1.04306172522706400000e+000) (24, -1.11486386502755700000e-001) (25, 6.40555865522069450000e-001) (26, 6.88308292878918810000e-001) (27, 8.35843081955716770000e-001) (28, 5.86517365965026570000e-001) (29, -9.45624234571740830000e-002) (30, -1.09459193535119460000e+000) (31, -1.16039386443697530000e+000) (32, -8.80797319475927210000e-002) (33, 4.71670377260025750000e-001) (34, -4.01609413051733180000e-003) (35, 4.43842293154197210000e-001) (36, 1.96852234328282670000e-001) (37, -9.31714425442701080000e-002) (38, -3.57570805599989380000e-001) (39, -3.92205517181988260000e-001) (40, 5.92056438893970640000e-001) (41, 9.88540394490017520000e-001) (42, 7.51583200081830440000e-001) (43, 1.25526230122799020000e+000) (44, -5.20939224294849070000e-001) (45, 5.53828832143294600000e-003) (46, -1.40524827433719520000e-001) (47, -2.18174455573897970000e-001) (48, 1.07602412166984830000e+000) (49, 1.03450557087939730000e+000) (50, -7.67696432042878210000e-002) (51, -5.11318769254268390000e-002) (52, -9.58034444247287810000e-002) (53, -4.80503823348511940000e-001) (54, -2.41219897743499280000e-001) (55, -2.93086366444404280000e-001) (56, 1.43126176866188450000e+000) (57, -1.49106356132960360000e-001) (58, -6.24077273987053260000e-001) (59, -1.37439019437462480000e+000) (60, -1.61451207664220440000e-001) (61, -2.76067903136047180000e-001) (62, -1.65600948691754870000e-001) (63, 2.19240257324189170000e-002) (64, 4.98039778368513990000e-001) (65, -2.43580129309444370000e-001) (66, -4.14533425769792740000e-001) (67, -4.35382583586772560000e-001) (68, -2.02273091427322920000e-001) (69, -2.30607458208745950000e-001) (70, -1.43923691414545250000e-001) (71, 8.90749302264970620000e-001) (72, -1.95216597698812800000e-001) (73, -2.08127094202628430000e-001) (74, -2.81133570915083560000e-001) (75, -1.03855192006888180000e-001) (76, -1.15285369140110460000e-001) (77, -6.02495189804949090000e-001) (78, -1.15938797370269120000e-001) (79, -9.81276735971850780000e-002) (80, -4.54207764769853360000e-001) (81, -2.38247822577482340000e-001) (82, -9.20349497978573020000e-001) (83, -3.12921743262300490000e-001) (84, 1.11136921499539480000e-001) (85, -8.73480396728338660000e-001) (86, -2.87987254512833020000e-001) (87, -5.08091926823816680000e-002) (88, -2.57929294750759820000e-001) (89, -1.56093671209719680000e-001) (90, -1.64723773798274380000e-001) (91, 8.48685291008332010000e-001) (92, 3.35969102911793880000e-001) (93, -2.87716326352628280000e-001) (94, -1.87570083131385150000e-001) (95, -5.38040011794421180000e-002) (96, -1.02188816328392340000e-001) (97, -1.42892394287051580000e-001) (98, -4.14078197646214620000e-002) (99, 8.41575063536665560000e-001) (100, 7.58237823974429850000e-001) (101, -1.07099786632207930000e-001) (102, -5.53909152655889800000e-002) (103, -3.12266218829076180000e-001) (104, 3.71014347340266840000e-001) (105, 2.57524285420179080000e-001) (106, -1.03673250011490010000e-001) (107, -6.14225493618587230000e-002) (108, 9.88456358705245840000e-002) (109, 2.73972658563243210000e-001) (110, 6.22926882131151320000e-003) (111, -3.06122367075559120000e-001) (112, -1.00852291860430360000e-001) (0, -1.63873682263056040000e+001) (1, -4.90501786450796340000e-001) (2, -3.62606308935355810000e+000) (3, -1.90049636130397800000e+000) (4, -1.98023879413285760000e+000) (5, -3.60521958318359070000e+000) (6, -2.44767783541520010000e-001) (7, -3.17058089068747940000e-001) (8, -1.00341102653236760000e-001) (9, -9.84675640193542260000e-001) (10, -3.97252615133556090000e-001) (11, 1.92935602642258450000e-001) (12, 1.05061322298050580000e-001) (13, 3.76275301475309380000e-002) (14, 6.10195356967542460000e-001) (15, -1.62335105290668080000e-001) (16, 9.40130884840313100000e-002) (17, -9.12750171755167820000e-001) (18, -2.43632087622852870000e+000) (19, -1.80805409420784220000e+000) (20, -1.01330585481180990000e+000) (21, -4.30268898751763050000e-001) (22, -6.49991056591520460000e-001) (23, 5.56973946058336610000e-001) (24, -9.73359080031211190000e-001) (25, -1.92402579507054730000e+000) (26, -6.94063360266851000000e-001) (27, -3.77463401027045510000e-001) (28, -5.06630359752810460000e-001) (29, -6.66477076760334740000e-001) (30, -2.83301186510995890000e-001) (31, -3.50037139654735820000e-002) (32, -2.84785821395863170000e-001) (33, -7.32251507376093240000e-001) (34, -5.68127062910300570000e-001) (35, -6.75897797562655780000e-001) (36, -2.50655110392418000000e-001) (37, -3.18099953490730110000e-001) (38, -4.63573634094275820000e-001) (39, 2.04223557765023270000e-001) (40, -1.94011231957280180000e+000) (41, -1.71164965004658720000e+000) (42, -3.33940523747469410000e-001) (43, 2.07798356948549150000e-001) (44, -6.48107435750832630000e-001) (45, -2.40479682163397630000e-001) (46, -4.50109369243194830000e-001) (47, -1.98472362141688640000e+000) (48, -5.91295248172657550000e-001) (49, -4.48908367223421480000e-001) (50, 1.25020529836024560000e+000) (51, -2.62342281018630720000e-004) (52, 1.41301117770893210000e-001) (53, -5.04093762737288030000e+000) (54, -7.89554745710927870000e-001) (55, -6.09031667238063010000e-001) (56, 5.23046052488346570000e-001) (57, 2.29660008824747640000e-002) (58, 2.27316234373278410000e+000) (59, 1.71571370203235320000e+000) (60, 3.57456756031051270000e+000) (61, -2.30522090260584190000e+000) (62, -7.63138361685666400000e-001) (63, -8.10652202523289430000e-002) (64, 1.84306962716749580000e+000) (65, 1.26298410200632120000e-001) (66, -2.07318217699489350000e+000) (67, -1.02239557286837070000e+000) (68, -1.16010197952507270000e+000) (69, -7.51861542407458950000e-001) (70, 3.10903810956628330000e-001) (71, -2.66432484579797960000e-001) (72, 7.51539112415252480000e-002) (73, -1.79946942859641280000e+000) (74, -1.25518070253822690000e-001) (75, -9.73464550794697490000e-002) (76, -3.65871766536889080000e-001) (77, -5.42812117582355370000e-001) (78, -4.77899039758541700000e-001) (79, -4.16114099653848100000e-001) (80, -4.81860771192524410000e-001) (81, -1.84615240205850100000e-001) (82, 2.49127501166284680000e-001) (83, -2.92509688180430380000e-001) (84, -2.67953666790194230000e+000) (85, -2.70214863547074410000e-001) (86, -5.88694419593270620000e-001) (87, -7.63826803666670990000e-001) (88, -4.84262113236526840000e+000) (89, -2.79994447850334280000e-001) (90, -5.25765019692975010000e-002) (91, 2.75537925432414800000e+000) (92, 1.54908464553277640000e-001) (93, -2.75903347683884080000e-001) (94, -6.55211670201245160000e-001) (95, -7.14955953329063590000e-001) (96, -1.20719625238459400000e+000) (97, -3.17010866514783940000e-001) (98, -1.00559301001808310000e-001) (99, 1.53177959723785760000e-001) (100, -3.65443278687049510000e-001) (101, -6.40798237380277520000e-001) (102, -6.13650362199995140000e-001) (103, -5.01100113063831790000e-002) (104, -3.10169280893515250000e-001) (105, -1.38379292424720070000e+000) (106, -4.23972668823459960000e-001) (107, -5.28045643161664910000e-001) (108, -5.81945790449214680000e-001) (109, -1.96958586459082510000e-001) (110, 1.04929528391457470000e-001) (111, 2.72910669488310110000e-001) (112, -1.00503951402217550000e+000) (0, -1.68519119490490030000e-002) (1, 1.52903996379359030000e+000) (2, 5.16812599372754920000e-001) (3, 9.70505824171833000000e+000) (4, 9.66710047748084020000e+000) (5, 6.50906839652164670000e-001) (6, 5.43636376491638340000e+001) (7, 3.65676521221189100000e-001) (8, 1.59979697581904860000e-001) (9, -1.28904521211613800000e-001) (10, 5.13508444921446870000e-001) (11, 3.72967455403228070000e+000) (12, 1.19420826320411640000e+000) (13, -2.53364054102201320000e-002) (14, -5.65466237126808700000e-003) (15, -8.86751973041428750000e-002) (16, -1.51694652658178250000e-001) (17, -4.87401429311173420000e-001) (18, 2.78425722885695310000e+000) (19, 5.80354790895618680000e+000) (20, 9.11360272019013000000e+000) (21, 7.61141473524436510000e-001) (22, -2.90781542395578850000e-001) (23, -7.08872223120744720000e-001) (24, 5.93979063997001180000e-001) (25, -3.64642049565922610000e-001) (26, 6.80897512969241170000e-001) (27, 2.89305441690658190000e-001) (28, 6.23402495525459680000e-001) (29, 5.13736151448894280000e-001) (30, 1.59553034122827200000e-001) (31, 3.02406028860562390000e-001) (32, 5.60951026453241910000e-001) (33, 7.11928592175612770000e-001) (34, 8.01803692738086380000e-001) (35, 5.59590096604067220000e-001) (36, 3.73564976287938940000e-001) (37, 6.07020945582213980000e-001) (38, 1.28354361580690390000e-002) (39, 2.73644373863546730000e-001) (40, 5.23083767346590230000e-001) (41, 1.05463276864748320000e+000) (42, 9.13229955058930230000e-001) (43, -4.18828902687747700000e-001) (44, 5.22071767015021450000e-001) (45, 1.00310838359060290000e+000) (46, 6.57743814762968840000e-001) (47, 3.66195583126566640000e-001) (48, 1.96286458463958540000e-001) (49, 5.90747935901317470000e-001) (50, -1.39715743639804800000e-001) (51, -4.36285399808903180000e-001) (52, 6.50914640149215850000e-001) (53, 3.49107092519073500000e-003) (54, 4.16810469036819180000e-001) (55, 8.30275586214438140000e-002) (56, -3.16520731222289240000e-001) (57, -4.73799775274841910000e-001) (58, -2.98031587669871980000e-001) (59, 1.07048748046240390000e-002) (60, -2.14421270136090050000e-001) (61, 6.58497987017762630000e-002) (62, 3.75661343108516370000e-002) (63, 1.16900314292346390000e-001) (64, -2.98212702168834330000e-001) (65, -2.47472896637293770000e-001) (66, 4.21502843976639840000e-001) (67, 4.32451875321803130000e-001) (68, -6.78660848153306570000e-002) (69, -2.19231408739311350000e-001) (70, -9.93613714460180600000e-002) (71, -1.60941666418514290000e-001) (72, 4.38765243554865760000e-003) (73, 2.98201735731851780000e-002) (74, -9.03272786360880260000e-001) (75, -3.35997041810623400000e-002) (76, -7.26203076615245410000e-001) (77, -1.15578873520695170000e-001) (78, 4.72257761093042180000e-001) (79, -5.12499830989401120000e-002) (80, 4.22960823144662160000e-002) (81, -1.22234230003368600000e-001) (82, -1.96096686905749440000e-001) (83, -4.95698282143148320000e-001) (84, 2.61688206066938120000e-002) (85, -2.48279963851079980000e-001) (86, -1.21264214281184520000e-002) (87, -1.81007839794269380000e-001) (88, -4.89548691871269150000e-001) (89, -3.99045348646546280000e-001) (90, -6.42864234304933900000e-004) (91, 1.94840601682574140000e-001) (92, 2.64615837953546770000e+000) (93, 8.35213350128777400000e-001) (94, 6.70358149331593880000e-001) (95, -1.31924844185757450000e-001) (96, -3.25841443163650710000e-001) (97, -3.67608975053949460000e-001) (98, -7.69239809239125050000e-002) (99, -1.01237185617497750000e-001) (100, -9.43712898354801540000e-001) (101, 1.61363707237854760000e-001) (102, -1.24130752835465540000e-001) (103, -2.02079387460764870000e-001) (104, -1.44836210434325120000e-001) (105, -1.64287264107912690000e-001) (106, -7.33587084040691200000e-002) (107, -1.60746233096854120000e-002) (108, 4.02489648162270910000e-002) (109, -1.53303747662660190000e-001) (110, 1.38762741717531720000e-001) (111, -1.24937085465472160000e-001) (112, -7.03644165240884250000e-002) (0, 4.38750934923656520000e-001) (1, 5.54604740880935480000e-001) (2, -8.31023130198158630000e+000) (3, -1.39926971629958650000e+001) (4, -1.39465728947304350000e+001) (5, -8.31124448559043390000e+000) (6, 2.16294560757490830000e+000) (7, -1.92736080358810710000e-001) (8, 5.35148769562437730000e-001) (9, 1.50880173226189740000e-001) (10, -4.30892753227801740000e-001) (11, -3.64609455908466550000e-001) (12, 6.35639861467861420000e-002) (13, -2.51982063713002470000e-001) (14, 4.14145478860046550000e-001) (15, 2.27418253588374860000e-001) (16, -7.22830600597381580000e-001) (17, 1.53048142232419140000e+000) (18, -6.04543924794311740000e-001) (19, -5.33161607470952200000e-001) (20, -4.25187009214524900000e-001) (21, -1.17142515250546890000e+000) (22, 1.44873174019569780000e+000) (23, 5.07317041127188340000e-001) (24, 1.08822309378996020000e-001) (25, -4.01436140950918900000e-001) (26, -5.76626864208499400000e-001) (27, -5.41334108623832240000e-001) (28, -5.55199480632034730000e-001) (29, -3.45339904453537020000e-001) (30, -5.36413471121613530000e-001) (31, -2.94349257800668780000e-001) (32, -9.68376914155500010000e-002) (33, -4.32963423836922930000e-001) (34, -4.25992268070776390000e-001) (35, -2.38710383472629460000e-001) (36, -3.07058313888233070000e-001) (37, -3.63505435132382760000e-001) (38, -2.02675543267608730000e-001) (39, 3.57728808789015140000e-002) (40, -1.55161353683146960000e-001) (41, -4.69996007470395830000e-001) (42, -2.89227004010686570000e-001) (43, -2.40787238258406700000e-001) (44, 1.07443654004307600000e-001) (45, -2.83613015988659340000e-001) (46, -3.68102974750286970000e-001) (47, 2.36147807381542620000e-001) (48, -3.64923241816893950000e-001) (49, -4.46908757946072710000e-001) (50, -3.67408432010032650000e-001) (51, 1.57713954839522780000e-002) (52, 8.17061671280212840000e-002) (53, 5.51686442922687650000e-001) (54, -1.20076267021509860000e-001) (55, -3.46870471507087010000e-002) (56, -1.35400991062357810000e-001) (57, -6.29686411150006400000e-002) (58, 4.15746995599292510000e-001) (59, -9.60945060716728440000e-002) (60, 1.53630790186358030000e-001) (61, 1.48673082777435520000e-001) (62, 5.37081332409592100000e-001) (63, -2.62101991764035540000e-001) (64, 5.63609009515221190000e-001) (65, -1.74729159930156970000e-001) (66, 5.15860242173044830000e-001) (67, -6.28952093469116400000e-001) (68, -4.74922469456071860000e-001) (69, -3.44378151732885050000e-001) (70, -2.12863733256884490000e-001) (71, -1.96204072162911030000e-001) (72, 8.91654585685571900000e-002) (73, 2.84526582609753000000e-001) (74, -6.78124326343309550000e-001) (75, -4.51334812750214360000e-001) (76, -5.73235039930703350000e-001) (77, -2.74442877846304720000e-001) (78, -3.88628640673518710000e-001) (79, -3.46778152699765580000e-001) (80, 1.15842144113172900000e-001) (81, 1.08636030359209860000e-002) (82, -2.04105265932815170000e-001) (83, -1.03411215674852740000e+000) (84, -5.11087788818598180000e-001) (85, -2.56213086117466070000e-001) (86, -3.29744176882863450000e-001) (87, -3.00293789338403560000e-001) (88, 3.23477133783586560000e-001) (89, -5.12710561198501390000e-002) (90, 5.50559885472831290000e-002) (91, -5.64863484209443990000e-001) (92, -3.86803638363291840000e+000) (93, -2.21876755108802360000e-001) (94, -2.29294911267755700000e-001) (95, -3.77198087359366880000e-001) (96, 5.66415943856303780000e-001) (97, 2.82318332090557980000e-002) (98, -2.19404241305077460000e-001) (99, -1.03008989564595170000e-002) (100, 1.35560896585663980000e-001) (101, -2.70347157973231890000e-001) (102, -4.07216662989486830000e-001) (103, -2.06491658771098010000e-001) (104, -1.76503234166192460000e-001) (105, -3.00387815728371640000e-001) (106, -4.97310069540055410000e-001) (107, -3.14046705646570450000e-001) (108, -2.69124829977182340000e-001) (109, -3.60861967513902590000e-001) (110, -1.05239591106594240000e-001) (111, 2.27051264247226490000e-001) (112, -1.69304335409688170000e-001) (0, -6.20665179304350220000e-002) (1, 1.88222583046127780000e+000) (2, -1.99952226243211580000e+000) (3, -1.25320940000002420000e+000) (4, -1.16252336349244700000e+000) (5, -2.00519242853223290000e+000) (6, 8.09918454087443610000e+000) (7, -3.90989674986901930000e+001) (8, 1.51596829651375380000e+000) (9, 5.36659920695441660000e-001) (10, -1.98140755109663250000e+000) (11, 4.19469624574639770000e-001) (12, -2.80161141302559920000e-001) (13, -6.41447386801147990000e-001) (14, -1.20074708169627710000e+000) (15, -1.16560325970451300000e+000) (16, -1.78112652075446460000e-001) (17, -8.18664802637306680000e-001) (18, 2.51181747336762300000e-001) (19, 8.26225543303883310000e-001) (20, 4.26728882656023210000e-001) (21, 1.11082436221032100000e-001) (22, -9.62903410793097160000e-001) (23, -4.49630628094787180000e+000) (24, -8.32955714299366880000e-001) (25, 5.85898438553285610000e-002) (26, -1.09510269268679130000e-001) (27, -4.03757023539562440000e-001) (28, -4.67021357412772560000e-001) (29, -3.24836692512602780000e-001) (30, -8.31179137833727160000e-002) (31, -6.68539830154628310000e-005) (32, 6.83676760322796260000e-002) (33, -5.13506662084564410000e-001) (34, -5.73546425312291610000e-001) (35, -3.30663557971728030000e-001) (36, -1.68232655370758180000e+000) (37, -4.85677402800153870000e-001) (38, -5.26466347004181380000e-001) (39, -6.12253172753282280000e-001) (40, -5.54806675169821410000e-001) (41, -6.33680412377296550000e-001) (42, -9.80396232747371420000e-002) (43, 8.88169073677934520000e-001) (44, 4.93616248066662600000e-001) (45, -1.00241222510411180000e-001) (46, -4.41368260538112180000e-001) (47, -1.44993161365902950000e+000) (48, -1.63901757362217640000e+000) (49, -6.45864884032241520000e-001) (50, 9.85617236619903970000e-002) (51, 2.96179833888248370000e-001) (52, 2.22928717370129540000e-001) (53, 1.89466282450068890000e+000) (54, -2.34965547609471860000e-001) (55, -1.86470222878666080000e+000) (56, -4.95043481815454490000e-001) (57, -5.92142291739089780000e-002) (58, 1.83985986078007120000e-001) (59, 1.46438218247824370000e+000) (60, 7.25477415081019150000e-001) (61, 1.16535808453525260000e-001) (62, -8.36519865576294400000e-002) (63, -8.56258740146351950000e-001) (64, 7.05503526477677560000e-001) (65, 1.09611274699692470000e-001) (66, -1.54915676911698410000e+000) (67, -4.91356233610353580000e-001) (68, -3.55756707269619280000e-001) (69, -5.85205641223444760000e-001) (70, -2.49956831960985610000e-001) (71, -7.08950752545482680000e-001) (72, 3.64805035551213130000e+000) (73, 6.50294357814793170000e-001) (74, -2.44377730451950370000e+000) (75, -4.59045463391293660000e+000) (76, -3.50778834714560570000e+000) (77, -3.01841803296665820000e-001) (78, -4.82900365078609560000e-001) (79, -7.91014508270084790000e-001) (80, 9.00519456709106940000e-001) (81, 9.96198169072330830000e-001) (82, 1.77457881905305110000e+000) (83, -1.98599915608704080000e-001) (84, -2.56478226801386600000e-001) (85, -2.01773614120718230000e-001) (86, -8.56761853315547330000e-001) (87, -6.17124543838400430000e-001) (88, 3.99065589801210690000e-002) (89, -9.87276514179319660000e-002) (90, 6.43798054863433000000e-001) (91, 1.28278615600364130000e+000) (92, 3.12650263380343850000e+000) (93, 1.82850026665586740000e-002) (94, -1.61582421390156840000e+000) (95, -5.77493766956959200000e-001) (96, -2.23592405427873230000e-001) (97, -7.02928604852618160000e-002) (98, -8.25745206782657890000e-002) (99, 1.08283432676556510000e+000) (100, 1.02640762946947950000e+000) (101, -1.00404989966095610000e+000) (102, -7.66225130876350830000e-002) (103, 1.90696302420520850000e-001) (104, 1.90305377659233170000e-001) (105, -1.74088829900281630000e-001) (106, -9.69779849221294590000e-002) (107, -1.26668545049892280000e-001) (108, -9.71341061439380680000e-002) (109, -5.82910485973311270000e-003) (110, 1.33435164799629760000e+000) (111, 1.68434933960464360000e+000) (112, -1.13662995667884130000e-001) (0, 1.63952260210550740000e+000) (1, 6.28782161135057380000e+000) (2, -1.52846472828885510000e+001) (3, -3.48319117384585920000e+000) (4, -3.51114527582490780000e+000) (5, -1.51801550938314960000e+001) (6, 2.05822090619608070000e+001) (7, 7.72745004024380250000e-003) (8, 5.19747644606695200000e-001) (9, 1.00193151267759690000e+000) (10, -4.40995398298180910000e-001) (11, -5.65069787797841260000e-002) (12, -1.24893318304243630000e-001) (13, -6.73422249134363050000e-002) (14, -1.41984696098045910000e+000) (15, 1.76043063646260120000e+000) (16, 5.57147752005203830000e-001) (17, 4.15156586750979940000e-001) (18, -1.38401526877385760000e+000) (19, -1.31012491414113860000e+000) (20, -1.28218847337145680000e+000) (21, -6.47543419841798970000e-001) (22, 4.18812435621828260000e+000) (23, 2.94704456593563170000e+000) (24, 3.33822294850240900000e-001) (25, -7.37826983461033480000e-002) (26, -3.88629249822482150000e-001) (27, -2.99605078521517350000e-001) (28, -4.08204861875444030000e-001) (29, -4.33301066929919270000e-001) (30, 1.41684984565318620000e+000) (31, 5.94786986803704680000e-001) (32, 2.77786037418501890000e-001) (33, -6.04417326841654170000e-002) (34, -4.24675903938519230000e-001) (35, -5.16559069498176650000e-001) (36, -6.47782871307485690000e-001) (37, -3.55095015218412410000e-001) (38, -2.79581368057775000000e-001) (39, 1.38750009677651300000e-001) (40, -2.65439303299552620000e-001) (41, -4.08295156812912060000e-001) (42, -3.95417808101044150000e-001) (43, 6.68851495267066690000e-002) (44, -2.82648962478347860000e-001) (45, -5.89477829740602810000e-001) (46, -3.95591883735798840000e-001) (47, -2.04034076221829950000e-001) (48, -1.08060736607340030000e-001) (49, -9.24778613773209880000e-002) (50, -1.45862967770709310000e-002) (51, 2.78838492608902640000e-001) (52, 7.05792756539095480000e-002) (53, -4.28978312315147280000e-002) (54, -4.24228462327830850000e-001) (55, -8.13895886240960430000e-001) (56, 1.00833387459126580000e+000) (57, 3.15639821126985800000e-001) (58, 9.53788744610406870000e-003) (59, 1.50221372974765180000e-001) (60, 4.98037790305030860000e-002) (61, -2.82916376976533360000e-002) (62, 1.26900525483308520000e-001) (63, 8.80225550256919370000e-002) (64, 2.25481280133893720000e+000) (65, 1.59855254335060230000e-001) (66, -2.49087962068850560000e-001) (67, -4.05023178579729360000e-001) (68, -3.22020586006731390000e-001) (69, -1.19063766169326300000e-001) (70, 1.62957750303008050000e-001) (71, 5.32564087662394030000e-002) (72, 3.93614656638385910000e-001) (73, 2.18587712551929710000e-001) (74, -3.07643785074636300000e-001) (75, -2.02957135492708840000e+000) (76, -8.84986947788494400000e-001) (77, -1.86426542503917600000e-001) (78, -2.06977215724475830000e-001) (79, -2.81441590319355120000e-001) (80, 8.85410498550811140000e-002) (81, 2.18589851032184510000e-001) (82, -1.39121996179185220000e-001) (83, -1.65542068523785200000e-001) (84, -2.28509268122652990000e-001) (85, -2.28447124520580080000e-001) (86, -1.85240388864485740000e-001) (87, -1.21761992618152780000e-001) (88, 1.91758709504149610000e-001) (89, 1.67226264377696000000e-001) (90, 5.60230746400529390000e-001) (91, -2.71606549815366080000e-001) (92, -4.60290914862620190000e-001) (93, -2.31662485730437880000e-001) (94, -4.11420651268641570000e-004) (95, 9.17801143864219600000e-002) (96, -1.20595588309566270000e-001) (97, 3.65896103526293370000e-001) (98, -6.99303102977235220000e-002) (99, -3.07444253275125160000e-002) (100, -5.32651316738995200000e-002) (101, 3.31746880094625570000e-002) (102, 4.02495945208633520000e-001) (103, 1.55374056724379790000e-001) (104, -5.52341668045309710000e-001) (105, 1.48944971858472690000e-001) (106, -1.79984379482500120000e-001) (107, 1.62716740486030240000e-001) (108, 1.03140129715977840000e-001) (109, 2.71978875531244280000e-001) (110, 9.93344026562180130000e-001) (111, 8.06824443027355010000e-001) (112, 1.61320666114041530000e-001) (0, 6.32878082753866370000e-001) (1, -1.07974533743274500000e+000) (2, 2.16406225984507120000e+001) (3, 8.34423644466986280000e-002) (4, 1.38666974644609360000e-001) (5, 2.15862952050630450000e+001) (6, -4.14260329649390790000e+000) (7, -4.22116550935167760000e-001) (8, 2.47864338682164540000e-002) (9, -1.39854532807808880000e-001) (10, -7.00057657115165880000e-001) (11, -5.53296087366107510000e+001) (12, 3.09526624941175840000e+000) (13, -6.96611531945200530000e-001) (14, -4.84443182133078410000e-001) (15, -5.81181800704904770000e-001) (16, 2.49626187732219650000e-002) (17, 4.74121075650038030000e-001) (18, -1.17386720923035990000e-001) (19, 7.06489865161244230000e-001) (20, 5.98054804951685950000e-001) (21, -8.36265427623068410000e-002) (22, 3.40586726087052930000e-002) (23, -3.55017812632092980000e-001) (24, -1.17301134328156700000e+000) (25, 1.32265488026792030000e+000) (26, -1.34320649888571590000e-001) (27, 8.92675025731642090000e-002) (28, -4.98684982031085270000e-002) (29, 1.00148008968473620000e-001) (30, 7.65359510102655020000e-002) (31, 1.91169865988331740000e-001) (32, -4.78342381899258050000e-002) (33, -3.35876688152146440000e-001) (34, -4.90391273708097650000e-001) (35, -3.26971433114889350000e-001) (36, -1.18206772227087020000e-001) (37, 4.69119772646319270000e-001) (38, 3.01103861026651150000e-001) (39, 3.64584479921047260000e-001) (40, 6.20701146804656380000e-001) (41, -3.28275718709935160000e-001) (42, -4.80193300272134640000e-001) (43, -1.70891473417814380000e-001) (44, -1.38938086861750640000e+000) (45, -1.95088203495164760000e-001) (46, 5.91240439438141640000e-001) (47, 4.10136021805461650000e-002) (48, -6.16661239673933770000e-002) (49, -1.39900681135578130000e-001) (50, -1.97252520781610150000e-002) (51, -6.32630759787492840000e-001) (52, -4.19417746526734800000e-001) (53, -6.02390667576677360000e-001) (54, -1.90849221322852060000e-001) (55, -2.01724114108448070000e-002) (56, 8.87082009058017600000e-001) (57, 1.74019666862691780000e-002) (58, -9.22535772336915750000e-001) (59, 1.30409732116247730000e-001) (60, 4.81986084883500810000e-001) (61, -2.10388786776494030000e-001) (62, -1.05566154155391660000e+000) (63, -1.03100101050644290000e-001) (64, 2.74929471177146610000e-001) (65, 1.62665711591225030000e+000) (66, 2.41357655214715940000e-001) (67, -1.47746647859384020000e-001) (68, -8.02487803655521780000e-002) (69, 2.74268839021131920000e-001) (70, -2.48442777859407830000e-001) (71, -2.10518267989099920000e-001) (72, 1.03850645963940760000e+000) (73, 1.64067996910317220000e+000) (74, 9.61358631148647390000e-001) (75, 1.76527072991940700000e-001) (76, 9.92573486693430710000e-001) (77, 1.63096692117259590000e+000) (78, -5.70434994532094560000e-001) (79, -1.43324241216998340000e+000) (80, 6.67880051748315220000e-002) (81, -8.49477060875002550000e-002) (82, 2.49155913202787850000e-001) (83, 2.91546125687056180000e-001) (84, 3.01611414093247810000e-002) (85, -6.74250601004187660000e-001) (86, -6.82349661825187640000e-001) (87, -7.58259108289715660000e-001) (88, 1.94073927158705140000e-001) (89, 3.58628306620095930000e-001) (90, 1.66717882766582860000e-001) (91, 4.83798116174008250000e-001) (92, -5.05673883847368550000e-001) (93, -2.07995174561225760000e+000) (94, -1.19980746021849830000e+000) (95, -1.92522539583208310000e+000) (96, -2.24000001917187770000e-001) (97, 7.90762366151555870000e-002) (98, 9.71652413807074570000e-001) (99, 8.23146499347824250000e-001) (100, -5.70265598513285400000e-001) (101, -6.70387131061038640000e-001) (102, -1.89802872720742450000e-001) (103, -2.71326842235520000000e-001) (104, -1.12467237968083800000e+000) (105, -1.39051285114388410000e-001) (106, -7.46966631029463840000e-002) (107, -2.18069956828291890000e-003) (108, -1.39370402078408270000e-002) (109, 2.72226259233752430000e-001) (110, 1.66266795294066990000e-001) (111, -5.92510827652227740000e-003) (112, -4.44658117660227810000e-002) (0, -1.35354107988010130000e+000) (1, 4.45362500015034790000e+000) (2, 3.97248987062017460000e+000) (3, -3.89306524270537300000e-001) (4, -3.43200566552255000000e-001) (5, 4.04049524272728440000e+000) (6, -1.15525403052388400000e+002) (7, -1.81197532551887400000e+000) (8, -2.61646857484351680000e-001) (9, -8.25450854184742620000e-001) (10, -1.96879359275869010000e+000) (11, -1.07711350786687880000e+001) (12, 4.60249488805607180000e-001) (13, 1.13463609845347520000e-001) (14, -1.35622301864147090000e-001) (15, -2.68560776673423760000e+001) (16, 1.28568161706507780000e-001) (17, -4.38241583752462250000e-001) (18, -1.75308133058683840000e-001) (19, 4.92476644824092760000e-001) (20, 3.60840257995810430000e-001) (21, -8.15069036849736750000e-001) (22, -2.02962593625212720000e+000) (23, -8.94125132914926210000e-002) (24, -5.90563735742362320000e-001) (25, -3.80166695942939890000e-001) (26, -5.08270542106333160000e-001) (27, -2.24238048426808530000e-001) (28, -1.08074047959324640000e-001) (29, 1.40020616885598480000e-002) (30, -2.95454770254042600000e-001) (31, 1.71829084712132110000e-002) (32, -6.24751962391940530000e-001) (33, -6.62075309238955520000e-001) (34, -2.70527457096203960000e-001) (35, -2.80592057606863950000e-001) (36, -4.18952968746259590000e-001) (37, -2.50825757996385080000e-002) (38, 2.34733029135601960000e-001) (39, -6.27440013565561670000e-002) (40, -6.83714171837916940000e-001) (41, -5.87867763293955290000e-001) (42, -5.90861924849648390000e-001) (43, -1.68688497393885720000e-001) (44, -1.94080379239564120000e+000) (45, -3.05452543263000250000e-001) (46, -1.17434278426595570000e-001) (47, 2.59989300998321960000e-001) (48, 8.89003443050020880000e-001) (49, 2.36329344874245780000e-001) (50, 5.05997236239863260000e-001) (51, 1.40038827986626400000e-001) (52, -2.24849737911672900000e-001) (53, 3.25590968451071050000e-001) (54, 9.62768498300853760000e-001) (55, -1.60049011378489880000e-002) (56, -2.01413149412685450000e-001) (57, -1.42932912857744010000e-001) (58, 8.39772137051560400000e-001) (59, 5.70709691957030360000e-001) (60, -3.06335858175130980000e-001) (61, 5.96783712429445280000e-001) (62, -4.12775953820993730000e-002) (63, -3.87911011221065360000e-001) (64, -3.13018498678540650000e-001) (65, 4.57137052873812120000e-001) (66, 3.27150631215087630000e+000) (67, -9.51536724684955840000e-002) (68, -6.95342292166274080000e-001) (69, -4.35375093581852500000e-001) (70, -4.65602561694330340000e-001) (71, -4.62373951665077110000e-001) (72, 1.62649785786678600000e-001) (73, 2.34567403319832520000e+000) (74, 4.81773779126903780000e-001) (75, -1.05492342687980200000e+000) (76, -1.80245666162236720000e-001) (77, -3.71049847148986980000e-001) (78, -5.92646483809549320000e-001) (79, -7.27693077303376960000e-001) (80, 1.97767223233076520000e+000) (81, 4.30264010628062190000e-001) (82, -1.00417934760743390000e-001) (83, -3.06526852074985310000e-001) (84, -1.93113731189352670000e+000) (85, -5.93953954974883120000e-001) (86, -5.08908819179487940000e-001) (87, -6.67172015231832010000e-001) (88, -2.93504397729149460000e-002) (89, -5.75764435618831140000e-002) (90, -1.55509474526072560000e-001) (91, -4.79363266214022090000e-001) (92, 8.27321572342980430000e-001) (93, -9.10803680907106700000e-002) (94, -4.31412747989810720000e-001) (95, -9.77234679470073360000e-001) (96, -5.79288819190711400000e-001) (97, -8.35150030208500340000e-002) (98, 1.03097621811252970000e-001) (99, -1.47968276069381650000e-001) (100, 1.07933503628529710000e-001) (101, -4.60215517269763840000e-001) (102, -2.24271704692844550000e-001) (103, -4.11627129866467370000e+000) (104, -2.89006105988723320000e+000) (105, -8.51914435649403500000e-001) (106, -3.84953423155397270000e-001) (107, -2.22946527528159270000e-001) (108, -4.69491656002246460000e-001) (109, -5.32476969437476470000e-001) (110, -1.41857317530878780000e+000) (111, -2.69597671348662860000e-001) (112, 4.55305866421841580000e-002) (0, -6.03460783948035660000e+000) (1, -2.37445812757768460000e+000) (2, -3.75160959289978990000e+001) (3, -3.85407935304379200000e+000) (4, -3.80506201832900180000e+000) (5, -3.74160593064134870000e+001) (6, 9.89111965459421820000e-001) (7, 9.36887930087923420000e+000) (8, 4.17590188982361940000e-001) (9, 3.71153357279125130000e-001) (10, -3.00794587268807760000e-001) (11, 5.31695943136062170000e-001) (12, 3.46365954128610930000e-001) (13, 1.31209757126032420000e-001) (14, 5.92682676073366110000e-001) (15, 1.51622517025285790000e-001) (16, -3.04481793882521940000e+000) (17, 1.82750271346327790000e-001) (18, 1.66209155513790630000e+000) (19, 7.09327947934053400000e-001) (20, 6.61409246048134000000e-001) (21, 2.06728750239304660000e+000) (22, 5.33140320210752310000e-001) (23, 7.97409776122396050000e-001) (24, 1.83558372982024930000e-001) (25, -1.38556389076853050000e-001) (26, -3.83321342007198200000e-001) (27, -4.59195652832984970000e-001) (28, -4.79067412062017580000e-001) (29, -2.80380053195328990000e-001) (30, -7.84781057208990970000e-002) (31, -3.69377342873864370000e-001) (32, 2.35008893560408330000e-001) (33, -4.40336984514561270000e-001) (34, -3.89188369605094290000e-001) (35, -2.39754239612153170000e-001) (36, -5.78711600445550370000e-001) (37, -5.53485835779531590000e-001) (38, -3.34803108108127190000e-001) (39, -1.21005991753653410000e-001) (40, -6.89098623887295040000e-001) (41, -1.62647890617708610000e+000) (42, -4.91688898334016580000e-001) (43, -1.55507860217823450000e-001) (44, -2.17157752562096400000e-002) (45, -2.69315387012026340000e-001) (46, -5.68500338259724010000e-001) (47, -5.39727255065944540000e-001) (48, -1.98704071528239170000e+000) (49, -7.45978465660829590000e-001) (50, 3.24578354017453720000e-001) (51, -4.16032859803316780000e-001) (52, -4.33118358279543980000e-001) (53, 1.89461259381760310000e-001) (54, -6.26995811356143350000e-001) (55, -9.83208538718125970000e-001) (56, -5.78361895055470640000e-001) (57, 2.53908224476291360000e-001) (58, -1.64472521463535890000e-001) (59, -1.29621555784165790000e-001) (60, 3.06886581963232260000e-001) (61, 2.66733091646499280000e-002) (62, -6.48134320943957730000e-001) (63, -2.76968254802817390000e-001) (64, 2.49235284357983420000e-001) (65, -2.77469472194686940000e-002) (66, -2.00088044933860320000e+000) (67, -5.59847764786353120000e-001) (68, -3.10606245536139520000e-001) (69, -5.15001292267771250000e-001) (70, 1.92666790429529990000e+000) (71, 6.62499141814903570000e-002) (72, -2.05196974529682840000e+000) (73, 2.57199568399802180000e-001) (74, -1.76134738845482520000e+000) (75, -5.60462583815757090000e-001) (76, 1.49878103405066780000e+000) (77, -1.33440935687831190000e-001) (78, -6.79615290462509010000e-001) (79, -7.23985852292368450000e-001) (80, 2.48668768862935790000e-001) (81, -1.78718340804120220000e-001) (82, -4.22634765529460170000e-002) (83, -6.00888099752169060000e-001) (84, -6.25594324811368560000e-001) (85, -8.34664439242391860000e-002) (86, -6.32897058899468230000e-001) (87, -6.94579113572923900000e-001) (88, 2.27797572583486620000e-001) (89, -4.33526043707498140000e-001) (90, -1.32132197803382220000e-003) (91, 5.05558301577489930000e-001) (92, -3.82108811722627810000e+000) (93, -1.29370885114300030000e-001) (94, -1.28088342561023680000e+000) (95, -6.09770113362024910000e-001) (96, -5.10079677018812410000e-001) (97, 7.04578797325441510000e-002) (98, -4.50987186821818880000e-001) (99, -9.13705641032746960000e-002) (100, -6.28569590770042680000e-002) (101, -5.53298001924091620000e-001) (102, -6.04029975039472760000e-001) (103, 2.59434043081527510000e-001) (104, -3.32801704590931920000e-002) (105, -2.00349840692456790000e-001) (106, -4.79360010925377780000e-001) (107, -2.83708752953630520000e-001) (108, -2.57030285759215380000e-001) (109, -3.20887307413546040000e-001) (110, 2.60404106201807930000e-001) (111, -8.23766785154492000000e+000) (112, -1.91401686232470090000e-001) (0, 7.10658727077359890000e-001) (1, 1.64338590852062330000e+000) (2, 5.21562396716343900000e+000) (3, 2.21287173578523400000e-001) (4, 2.11240786710070570000e-001) (5, 5.22349750243701290000e+000) (6, 1.49268336278179150000e+000) (7, 1.08524882675485480000e+000) (8, 3.04357951769084310000e-001) (9, -2.57011759909617920000e-003) (10, -9.31615386492813720000e-001) (11, -7.22687477528877080000e-001) (12, -7.02069801440399650000e-001) (13, 9.60248527575069620000e-001) (14, 2.18109350659696550000e-001) (15, -5.28423777205332180000e+000) (16, -2.10737336015015100000e-001) (17, -8.71222267266524080000e-001) (18, -9.13355314881528660000e-001) (19, -2.09411389753824950000e-001) (20, -1.59844716466197880000e-001) (21, -1.32201103360136850000e-001) (22, -2.00850449040907590000e+000) (23, -4.75089535356344420000e+000) (24, -5.33242685058263000000e-001) (25, -3.08253279800665330000e+000) (26, -3.16314867628572470000e-001) (27, 4.82823869145220380000e-002) (28, -2.48843793567551010000e-001) (29, -3.00719627939377950000e-001) (30, -2.18642757757148840000e-001) (31, -4.25137837361624450000e+000) (32, -1.10757388099839170000e+000) (33, -1.16634543889788960000e+000) (34, -4.97842403182307160000e-001) (35, -4.61722076627757770000e-001) (36, -2.32090946848529660000e-001) (37, -1.86520376689972120000e-001) (38, -6.17705276499508210000e-002) (39, -1.39871903063724050000e-001) (40, -2.03954593136412370000e-001) (41, -3.36636569620441200000e-001) (42, 8.59812755609976750000e-002) (43, 1.49999309849054250000e+000) (44, 4.08321356860700920000e-003) (45, 8.09560569899365340000e-002) (46, 1.08678176914007440000e-001) (47, -7.75593691889046370000e-001) (48, -3.38812697381674190000e-001) (49, -3.43398440377079340000e-001) (50, 8.24491326663162940000e-001) (51, -2.99425070107242900000e-002) (52, -1.60998082782165580000e-002) (53, 2.66318352698966920000e-001) (54, 1.32581439334868990000e-001) (55, -8.82147645548407190000e-001) (56, -4.72255822846750720000e-001) (57, -1.66923137450129790000e-001) (58, -1.02823417298130600000e+000) (59, 1.87480339837106690000e-001) (60, -8.54489524070235370000e-001) (61, -2.05302890537280490000e-001) (62, -5.61120905211580980000e-001) (63, -4.00982489969907820000e-001) (64, 1.46690643981693180000e+000) (65, 1.81127983080569210000e-001) (66, -2.20927204233457550000e-001) (67, 3.39083193530048610000e-002) (68, -2.26649028808033130000e-002) (69, -2.54367400988394170000e-001) (70, -1.94959495478881070000e+000) (71, -6.47540521667499870000e-001) (72, 1.17171106156596010000e+000) (73, 3.35908987336082760000e+000) (74, 1.39192879760876330000e-002) (75, -5.87043329057889920000e-001) (76, -1.08275551138416710000e+000) (77, -3.57212269967293670000e-002) (78, -2.97123505789911310000e-001) (79, -2.02671022982877250000e+000) (80, 8.80299356338249070000e-001) (81, 4.56430191107975450000e-001) (82, 4.42508581565419080000e-002) (83, -2.23546962074628540000e-001) (84, -1.39477314586428800000e+000) (85, -3.26568794344178790000e-001) (86, -3.42680109532936430000e-001) (87, -4.30899372502675680000e-001) (88, 3.78845813559461560000e-001) (89, 6.36438489047449350000e-002) (90, 4.92154278490829160000e-001) (91, 2.23266784659812510000e+000) (92, 2.83240105845944290000e-002) (93, 5.10754125547424680000e-002) (94, -3.55991320056536220000e-001) (95, -2.67635924045960820000e-001) (96, 7.70510288062729590000e-002) (97, -1.64045554527066960000e-001) (98, -1.06603364322497020000e-001) (99, 5.47439052453706720000e-001) (100, -3.26918855889894720000e-001) (101, -4.00407168477982360000e-001) (102, -1.50842893658162310000e-001) (103, -5.79018254930084370000e-002) (104, 1.37642822223863100000e-002) (105, 8.14215856739383460000e-001) (106, 1.13793045664493750000e-002) (107, -6.92005128321615120000e-002) (108, -1.22247468590804610000e-001) (109, 7.75155492132691690000e-002) (110, 5.54590825956918980000e-002) (111, 5.75910546523509590000e-001) (112, 6.31539538982941320000e-002) (0, 2.98753096467616110000e+001) (1, 4.45157723198435120000e+000) (2, 7.09911021772917290000e+000) (3, 7.01467418131472800000e+000) (4, 7.03490123239738630000e+000) (5, 6.92920665074428750000e+000) (6, 1.26534571704219190000e+002) (7, 6.22617002393779230000e+001) (8, 9.21498397539198930000e-001) (9, 1.58519754386828990000e+000) (10, 6.13380286668267490000e-001) (11, 3.84520606466299600000e-001) (12, 4.84816507280436850000e-001) (13, 2.87914210946891790000e-001) (14, 3.53419005590873800000e-001) (15, 3.29191325814406520000e-001) (16, 6.14347612119055200000e-001) (17, 1.11917333732327820000e+000) (18, 4.16565144719650730000e-001) (19, 3.80675354040743650000e-001) (20, 4.91624071523454940000e-001) (21, 4.74891575658868140000e-001) (22, -7.55805734911725040000e-002) (23, 2.78231101233667400000e-001) (24, 3.73270069124065910000e-001) (25, 4.03096965292698670000e-001) (26, 4.17171182628093830000e-001) (27, 4.50692290778196000000e-001) (28, 3.62505669079835390000e-001) (29, 4.85129573641516930000e-001) (30, 3.15593952851467740000e-001) (31, 3.58905589396880390000e-001) (32, 4.02311112751646550000e-001) (33, 4.86304104478810010000e-001) (34, 2.35199311657376370000e-001) (35, 3.47264813505948290000e-001) (36, 3.46316639149110540000e-001) (37, 3.05289195848503720000e-001) (38, 3.52766588435709460000e-001) (39, 3.36932862762269860000e-001) (40, 4.58980758960635230000e-001) (41, 4.49463976254578460000e-001) (42, 5.13501304908415610000e-001) (43, 9.33206128620936770000e-001) (44, 3.10633931267248810000e-001) (45, 5.00263867799499940000e-001) (46, 2.82306088240235060000e-001) (47, 4.32822711618177420000e-001) (48, 3.41238241420488200000e-001) (49, 3.31565831881089570000e-001) (50, 5.24053283678475700000e-001) (51, 1.61361828487669400000e+000) (52, 2.70679000939534900000e-001) (53, 6.12209138192939870000e-001) (54, -1.78606158195653950000e-001) (55, 1.02716122899411610000e-001) (56, 1.49417298282059790000e+000) (57, 3.49017786234181500000e-001) (58, 3.05049567654801570000e-001) (59, 1.56195410523963170000e+000) (60, 1.09319009618409700000e+000) (61, 4.01246402163062400000e-001) (62, 2.24747385390061450000e-001) (63, 1.31558125807654420000e+000) (64, 1.62406448847490990000e+001) (65, 1.80603422808537520000e+000) (66, 3.30549397795876940000e-001) (67, 8.26894201228244860000e-001) (68, 5.01423245137978310000e-001) (69, 8.27612224924589300000e-001) (70, 1.36215067658062770000e+000) (71, 5.55539162992582880000e-001) (72, 2.32087794122911860000e+001) (73, 1.79287275080404350000e+001) (74, 1.81710567737042420000e+000) (75, 6.65495496706731250000e-001) (76, 4.37591974990020060000e-001) (77, 9.63823442679494380000e-001) (78, 3.15668720200273260000e+000) (79, 1.00351515214709290000e+000) (80, 4.75538201919474530000e+000) (81, 1.20714982920986970000e+001) (82, 4.68511840771291430000e-001) (83, 6.16675774869063110000e-001) (84, 1.32463736772098710000e+000) (85, 2.32764612980653500000e+001) (86, 2.17039093673433920000e+000) (87, 9.94703678134645130000e+000) (88, 2.90829757369636740000e+000) (89, 4.98163872920570850000e-001) (90, 7.17567916591963280000e-001) (91, -1.24526864543061630000e+000) (92, 5.49662736828600340000e-001) (93, 1.42222759873577400000e+000) (94, 1.43652334586687220000e+000) (95, 2.42652734988927960000e+001) (96, 5.36169919048499870000e-001) (97, 4.82203050431792120000e-001) (98, 4.34417277365073960000e-001) (99, 2.88803539082659210000e-001) (100, 8.46157603875925530000e-001) (101, 9.51091508896023790000e-001) (102, 3.14434852393438470000e+000) (103, 6.02119710732687000000e+001) (104, 1.43552006948740570000e+000) (105, 1.23310699646673960000e+000) (106, 7.06183014350655450000e-001) (107, 7.28539081334135470000e-001) (108, 3.43541088292065090000e-001) (109, 4.82180362942758070000e-001) (110, 1.06665524145748800000e+001) (111, 2.97546751873441910000e+000) (112, 3.27012366224992860000e-001) (0, 2.43044397592420440000e+001) (1, 7.16809891252422450000e-001) (2, 7.04656289774110080000e+000) (3, 1.17747023732023210000e-001) (4, 2.94346147457305140000e-001) (5, 7.03690713587846870000e+000) (6, -3.43769186258191790000e+000) (7, 6.40417453446368470000e-001) (8, 3.07003457325450150000e-001) (9, -8.60412226275351880000e+000) (10, 1.02610566048338030000e+000) (11, 1.74419548418121410000e-001) (12, 4.71976848159524070000e-001) (13, 4.34906042145973880000e+000) (14, 3.28067017403814450000e+000) (15, 3.11706949776310800000e-001) (16, 5.26790719551669890000e-001) (17, 1.19439702063390950000e+001) (18, 8.11551208447394260000e-001) (19, 4.63442806309178200000e-002) (20, 4.24097039154035130000e-001) (21, 3.32054210088787110000e+000) (22, 1.38735772933814730000e+001) (23, 2.31631312182516000000e+001) (24, 5.57090976735950870000e-001) (25, 1.07556815246829380000e+000) (26, 4.60168162706646400000e-001) (27, 2.29497790799470690000e-001) (28, 4.01643741395718350000e-001) (29, 9.76374470819078470000e-001) (30, 7.48806231793793490000e+000) (31, 9.30792298789849150000e-001) (32, 8.88467776403550680000e-001) (33, 1.84291953240495100000e+000) (34, 3.86970972393703650000e-001) (35, 2.82038918263255330000e-001) (36, 3.60106621775463990000e-001) (37, 7.21047569252712960000e-001) (38, 2.53650183050685210000e+001) (39, 1.43659371310422010000e+000) (40, 2.55793415432389230000e+000) (41, 5.46799053266894600000e-001) (42, 2.26642536514944950000e-001) (43, 9.28110862088042530000e-002) (44, 3.83070480754019340000e-001) (45, 7.45298473595238380000e-001) (46, 5.58728283984850750000e-001) (47, 1.12342813095944230000e+000) (48, 3.93749556512548620000e+000) (49, 5.75117557182241560000e-001) (50, 5.31176088223617950000e-001) (51, 2.88550546763845450000e-001) (52, 3.68098677225256580000e-001) (53, 8.19927765113214300000e-001) (54, 2.24338061922414410000e+000) (55, 9.03922002264857970000e-001) (56, 1.01417992267919770000e+000) (57, 3.40985507334547790000e+001) (58, 2.14959561449360680000e+000) (59, 4.04097790854906600000e-001) (60, 2.56521919887702180000e-001) (61, 7.73975035303346550000e-001) (62, 1.56926767037579280000e+000) (63, 7.96783716539044340000e-001) (64, 6.03939520173441440000e-001) (65, 9.34479618869900900000e+000) (66, 3.62959902920763610000e+000) (67, 2.29654064575697760000e-001) (68, 4.93120008731376900000e-001) (69, 6.75247549655825450000e-001) (70, 1.18248443747652770000e+001) (71, 1.10990816516368350000e+000) (72, 7.14495291308894890000e-001) (73, 4.14968794897153610000e+000) (74, 8.81564699633851980000e-001) (75, 1.43494613089718800000e+000) (76, 1.04954473546871860000e+000) (77, 6.49903529784446540000e-001) (78, 1.97571722192640280000e+000) (79, 4.08356946572714640000e+000) (80, 1.06406175851237440000e+000) (81, 3.09283806918582990000e+000) (82, 4.47420367131280250000e-001) (83, 3.82052455680942870000e-001) (84, 4.10416314732893860000e-001) (85, 1.40015008407696630000e+000) (86, 2.60027353820789340000e+000) (87, 4.17954024433824500000e+000) (88, 2.61433556581665890000e+000) (89, 2.24968028118105630000e+000) (90, 3.97039079903682090000e-001) (91, -3.68542181174306460000e+000) (92, 1.43716939885136730000e-001) (93, 5.30062282802073900000e-001) (94, 9.33403027855422710000e+000) (95, 5.10775219068760490000e+000) (96, 4.02244507005863120000e-001) (97, 1.27879728405257650000e+000) (98, 4.87351168927602720000e-001) (99, -3.54836462978749880000e-001) (100, 3.92170182989586840000e-001) (101, 1.89792795729627000000e+000) (102, 2.27147376938135450000e+000) (103, 5.01604492061970220000e-001) (104, 3.09277960824160920000e-001) (105, 2.32816150259640810000e-001) (106, 4.53028167888453290000e-001) (107, 5.07887127572588140000e-001) (108, 4.30696672096476330000e-001) (109, 4.95772395059892960000e-001) (110, 6.22037102626803780000e-001) (111, 5.27765691987088560000e-001) (112, 3.53998548023859380000e-001) (0, -1.12174286911576160000e+000) (1, -7.23333242421102950000e-002) (2, -9.56258114485546610000e+000) (3, -7.96457947680424990000e+000) (4, -7.87513855750272640000e+000) (5, -9.59285458280657540000e+000) (6, 7.30856173854694150000e-001) (7, -6.75162941989470160000e+000) (8, 1.07733168281216260000e+000) (9, 3.33754656568339300000e-001) (10, -2.92168073207879350000e-001) (11, 3.68782229648822460000e-001) (12, 3.59816613306852610000e-001) (13, -5.70070065464709300000e-003) (14, 5.73597730969919730000e-001) (15, 7.77732030851719710000e-001) (16, 6.73458964766644020000e-001) (17, 4.58882402400467990000e-002) (18, 6.72605315461905380000e-001) (19, 1.26869288161444050000e-001) (20, 1.40560301430663280000e-001) (21, 1.71999302532972980000e+000) (22, 9.84778681208572040000e-001) (23, 1.16039348306500470000e+000) (24, 2.49663758050073850000e-001) (25, -2.20814436664291960000e-001) (26, -4.01077719387284370000e-001) (27, -3.23273523593603950000e-001) (28, -5.76187233988047160000e-001) (29, -1.33401258240795770000e-001) (30, -8.86678958428359500000e-002) (31, 4.57616795041967260000e-004) (32, -7.50918453995315370000e-002) (33, -3.87512202607733170000e-001) (34, -3.12833840007003370000e-001) (35, -1.66352830523056470000e-001) (36, -4.48207559429788020000e-001) (37, -3.96589533668943120000e-001) (38, -2.49126064700148360000e-001) (39, -2.99576310490803410000e-001) (40, -4.29197360661758290000e-001) (41, -2.51325390539624380000e-001) (42, -6.53433772163554550000e-002) (43, 6.24357016922509470000e-002) (44, 1.98345669148671050000e-001) (45, -3.97319279520492450000e-001) (46, -2.69991137794695080000e-001) (47, -2.74175252399396330000e-001) (48, -3.36837562510429620000e-001) (49, -4.38191776654148660000e-001) (50, 2.59957510826775540000e-001) (51, 3.04902149260511350000e-001) (52, 1.16966861334318790000e+000) (53, 4.09122343753595460000e-001) (54, -2.37141674588614360000e-002) (55, -5.99702714577400210000e-001) (56, -3.34567055925313380000e-001) (57, -1.52051767798367270000e-001) (58, -2.24899366603808710000e-001) (59, 3.11990325417372650000e-001) (60, 7.12117703206035790000e-002) (61, 9.21749474449205240000e-002) (62, 8.68779014350438810000e-001) (63, -3.13091649511063270000e-001) (64, 4.71131304981930570000e-001) (65, -6.03913739022202020000e-001) (66, 